{"learner":{"attributes":{},"feature_names":["MA5","MA20","RSI"],"feature_types":["float","float","float"],"gradient_booster":{"model":{"gbtree_model_param":{"num_parallel_tree":"1","num_trees":"100"},"iteration_indptr":[0,1,2,3,4,5,6,7,8,9,10,11,12,13,14,15,16,17,18,19,20,21,22,23,24,25,26,27,28,29,30,31,32,33,34,35,36,37,38,39,40,41,42,43,44,45,46,47,48,49,50,51,52,53,54,55,56,57,58,59,60,61,62,63,64,65,66,67,68,69,70,71,72,73,74,75,76,77,78,79,80,81,82,83,84,85,86,87,88,89,90,91,92,93,94,95,96,97,98,99,100],"tree_info":[0,0,0,0,0,0,0,0,0,0,0,0,0,0,0,0,0,0,0,0,0,0,0,0,0,0,0,0,0,0,0,0,0,0,0,0,0,0,0,0,0,0,0,0,0,0,0,0,0,0,0,0,0,0,0,0,0,0,0,0,0,0,0,0,0,0,0,0,0,0,0,0,0,0,0,0,0,0,0,0,0,0,0,0,0,0,0,0,0,0,0,0,0,0,0,0,0,0,0,0],"trees":[{"base_weights":[-0E0,9.104131E-3,-3.8394716E-2,7.219029E-3,1.03464946E-1,-6.72767E-2,-2.1489289E-2,9.31148E-3,-6.04916E-2,1.2752367E-3,7.701625E-4,-4.186434E-2,-1.5480277E-1,-2.6265683E-4,-6.549627E-2,7.901309E-3,2.6291353E-3,-9.63967E-2,7.455884E-3,-1.0142339E-3,-3.6749505E-2,-1.221557E-1,-2.4478137E-3,-7.4687125E-3,1.3494025E-3,-1.15432695E-1,-3.1603456E-2,5.94738E-3,5.9968922E-2,-2.6031374E-4,-1.1803136E-3,2.7619416E-4,-1.0514299E-4,8.125376E-3,-4.515994E-2,-1.6062462E-3,-4.081733E-4,5.2844293E-2,-1.8402876E-2,-6.6874624E-4,-1.6062462E-3,1.6850773E-2,-1.2587745E-3,8.053448E-3,-2.8130284E-2,1.4875038E-1,2.3226894E-2,-1.02914884E-4,2.7619416E-4,-1.1978138E-3,-3.7194386E-2,2.3750376E-4,1.0463721E-3,-3.8065664E-2,1.699531E-2,-7.572373E-3,9.271862E-4,5.6368243E-3,1.4331752E-1,-9.425083E-2,-3.6766597E-3,1.7467823E-3,1.1228916E-3,3.187684E-2,-1.02914884E-4,9.317249E-7,-4.6983745E-2,-6.031458E-2,-2.4715764E-2,7.701625E-4,-1.30704865E-2,8.125376E-3,-4.081733E-4,7.330335E-3,-5.0986942E-2,1.7514273E-3,8.086457E-4,-1.00379446E-4,-1.2937462E-1,-1.9540401E-2,2.1594293E-2,-0E0,4.2427626E-2,-1.0706568E-3,-3.8012657E-2,-8.853137E-4,-4.923904E-2,1.3728124E-4,-3.1789094E-2,-3.5624622E-4,8.125376E-3,1.3728124E-4,-0E0,5.509829E-3,5.5896543E-2,-1.0739695E-1,-1.2792945E-2,-1.7238058E-3,-7.480761E-4,-5.332462E-3,-7.480761E-4,5.291043E-2,-4.2549553E-4,7.433418E-4,2.3750376E-2,-4.665328E-3,-5.0986942E-2,-2.7599135E-2,-8.853137E-4,-5.1249623E-2,-2.0944502E-2,3.0218624E-4,-1.0514299E-4,1.0463721E-3,4.854029E-5,8.625038E-4,3.9628777E-4,-1.2499735E-3,-7.900346E-4,3.9375375E-4,-1.1355706E-3,-1.7989038E-4,2.7619416E-4,7.433418E-4,2.7619416E-4,-0E0,4.0716922E-4,-2.5321756E-4,1.3728124E-4,-8.853137E-4,-4.0421248E-4,-4.081733E-4,-1.0514299E-4,-2.6031374E-4,-7.1120355E-4,-7.572373E-5,-5.7281373E-4],"categories":[],"categories_nodes":[],"categories_segments":[],"categories_sizes":[],"default_left":[0,0,0,0,0,0,0,0,0,0,0,0,0,0,0,0,0,0,0,0,0,0,0,0,0,0,0,0,0,0,0,0,0,0,0,0,0,0,0,0,0,0,0,0,0,0,0,0,0,0,0,0,0,0,0,0,0,0,0,0,0,0,0,0,0,0,0,0,0,0,0,0,0,0,0,0,0,0,0,0,0,0,0,0,0,0,0,0,0,0,0,0,0,0,0,0,0,0,0,0,0,0,0,0,0,0,0,0,0,0,0,0,0,0,0,0,0,0,0,0,0,0,0,0,0,0,0,0,0,0,0,0,0,0,0,0,0],"id":0,"left_children":[1,3,5,7,9,11,13,15,17,-1,-1,19,21,23,25,27,-1,29,31,-1,33,35,-1,37,-1,39,41,43,45,-1,-1,-1,-1,47,49,-1,-1,51,53,-1,-1,55,-1,57,59,61,63,-1,-1,-1,65,-1,-1,67,69,71,-1,73,75,77,79,-1,-1,81,-1,-1,83,85,87,-1,89,91,-1,93,95,-1,-1,-1,97,99,101,-1,103,-1,105,-1,107,-1,109,-1,111,-1,-1,113,115,117,119,-1,-1,121,-1,123,-1,-1,125,127,129,131,-1,133,135,-1,-1,-1,-1,-1,-1,-1,-1,-1,-1,-1,-1,-1,-1,-1,-1,-1,-1,-1,-1,-1,-1,-1,-1,-1,-1],"loss_changes":[2.8285651E0,1.151696E0,7.4697256E-1,9.0433025E-1,5.0537467E-2,1.2416716E0,9.1071284E-1,2.1970403E0,4.7558802E-1,0E0,0E0,1.1771333E-1,3.0647206E-1,6.361566E-1,5.198587E-1,6.230036E-1,0E0,1.7433488E-1,2.5915511E-2,0E0,1.5956634E-1,2.7368343E-1,0E0,4.149743E-1,0E0,2.4520135E-1,8.900746E-1,4.2675686E-1,7.035136E-1,0E0,0E0,0E0,0E0,2.4994263E-2,1.8729317E-1,0E0,0E0,1.2933451E-1,3.7721658E-1,0E0,0E0,2.4453905E-1,0E0,1.823664E0,5.476867E-1,1.2192011E-2,4.858581E-2,0E0,0E0,0E0,1.2077016E-1,0E0,0E0,9.3369484E-2,3.5207552E-1,5.370047E-2,0E0,5.2629626E-1,1.5501928E-1,2.568847E-1,1.0204311E-1,0E0,0E0,4.1728795E-2,0E0,0E0,1.1832839E-1,2.1553308E-2,6.2610134E-2,0E0,6.375229E-2,1.993835E-3,0E0,4.6851718E-1,3.2917643E-1,0E0,0E0,0E0,1.12575054E-1,1.1643916E-1,1.9612621E-1,0E0,4.5635045E-2,0E0,9.1112226E-2,0E0,6.757067E-2,0E0,3.1805053E-2,0E0,2.8644063E-2,0E0,0E0,3.25348E-1,7.880157E-2,1.2080669E-3,5.2178884E-1,0E0,0E0,5.33343E-2,0E0,2.3512244E-2,0E0,0E0,2.1924235E-2,2.6583225E-2,4.6598792E-2,9.1166645E-3,0E0,2.0504206E-2,5.4790348E-2,0E0,0E0,0E0,0E0,0E0,0E0,0E0,0E0,0E0,0E0,0E0,0E0,0E0,0E0,0E0,0E0,0E0,0E0,0E0,0E0,0E0,0E0,0E0,0E0,0E0,0E0],"parents":[2147483647,0,0,1,1,2,2,3,3,4,4,5,5,6,6,7,7,8,8,11,11,12,12,13,13,14,14,15,15,17,17,18,18,20,20,21,21,23,23,25,25,26,26,27,27,28,28,33,33,34,34,37,37,38,38,41,41,43,43,44,44,45,45,46,46,50,50,53,53,54,54,55,55,57,57,58,58,59,59,60,60,63,63,66,66,67,67,68,68,70,70,71,71,73,73,74,74,78,78,79,79,80,80,82,82,84,84,86,86,88,88,90,90,93,93,94,94,95,95,96,96,99,99,101,101,104,104,105,105,106,106,107,107,109,109,110,110],"right_children":[2,4,6,8,10,12,14,16,18,-1,-1,20,22,24,26,28,-1,30,32,-1,34,36,-1,38,-1,40,42,44,46,-1,-1,-1,-1,48,50,-1,-1,52,54,-1,-1,56,-1,58,60,62,64,-1,-1,-1,66,-1,-1,68,70,72,-1,74,76,78,80,-1,-1,82,-1,-1,84,86,88,-1,90,92,-1,94,96,-1,-1,-1,98,100,102,-1,104,-1,106,-1,108,-1,110,-1,112,-1,-1,114,116,118,120,-1,-1,122,-1,124,-1,-1,126,128,130,132,-1,134,136,-1,-1,-1,-1,-1,-1,-1,-1,-1,-1,-1,-1,-1,-1,-1,-1,-1,-1,-1,-1,-1,-1,-1,-1,-1,-1],"split_conditions":[6.6448784E1,6.569766E1,7.075455E1,6.448368E1,6.607994E1,6.97128E1,7.857139E1,6.432426E1,6.527779E1,1.2752367E-3,7.701625E-4,6.66668E1,7.046951E1,7.804612E1,8.083944E1,6.2935726E1,2.6291353E-3,6.465121E1,6.547611E1,-1.0142339E-3,6.708065E1,7.018086E1,-2.4478137E-3,7.151711E1,1.3494025E-3,7.9496506E1,8.537315E1,6.113678E1,6.3366516E1,-2.6031374E-4,-1.1803136E-3,2.7619416E-4,-1.0514299E-4,6.690043E1,6.7323944E1,-1.6062462E-3,-4.081733E-4,7.118654E1,7.53521E1,-6.6874624E-4,-1.6062462E-3,8.3848755E1,-1.2587745E-3,6.0579716E1,6.1580517E1,6.315787E1,6.4165054E1,-1.02914884E-4,2.7619416E-4,-1.1978138E-3,6.7741905E1,2.3750376E-4,1.0463721E-3,7.259227E1,7.628176E1,8.278691E1,9.271862E-4,5.963541E1,6.0975624E1,6.129042E1,6.2374374E1,1.7467823E-3,1.1228916E-3,6.355155E1,-1.02914884E-4,9.317249E-7,6.797778E1,7.1774055E1,7.291058E1,7.701625E-4,7.704482E1,8.184934E1,-4.081733E-4,5.8545322E1,6.009612E1,1.7514273E-3,8.086457E-4,-1.00379446E-4,6.14093E1,6.220075E1,6.2755665E1,-0E0,6.375254E1,-1.0706568E-3,6.84655E1,-8.853137E-4,7.226902E1,1.3728124E-4,7.3637955E1,-3.5624622E-4,7.74193E1,1.3728124E-4,-0E0,1.2235588E1,5.8928745E1,5.988344E1,6.0408005E1,-1.7238058E-3,-7.480761E-4,6.2027187E1,-7.480761E-4,6.2547295E1,-4.2549553E-4,7.433418E-4,6.3917675E1,6.819657E1,6.871657E1,7.204957E1,-8.853137E-4,7.322849E1,7.499976E1,3.0218624E-4,-1.0514299E-4,1.0463721E-3,4.854029E-5,8.625038E-4,3.9628777E-4,-1.2499735E-3,-7.900346E-4,3.9375375E-4,-1.1355706E-3,-1.7989038E-4,2.7619416E-4,7.433418E-4,2.7619416E-4,-0E0,4.0716922E-4,-2.5321756E-4,1.3728124E-4,-8.853137E-4,-4.0421248E-4,-4.081733E-4,-1.0514299E-4,-2.6031374E-4,-7.1120355E-4,-7.572373E-5,-5.7281373E-4],"split_indices":[2,2,2,2,2,2,2,2,2,0,0,2,2,2,2,2,0,2,2,0,2,2,0,2,0,2,2,2,2,0,0,0,0,2,2,0,0,2,2,0,0,2,0,2,2,2,2,0,0,0,2,0,0,2,2,2,0,2,2,2,2,0,0,2,0,0,2,2,2,0,2,2,0,2,2,0,0,0,2,2,2,0,2,0,2,0,2,0,2,0,2,0,0,2,2,2,2,0,0,2,0,2,0,0,2,2,2,2,0,2,2,0,0,0,0,0,0,0,0,0,0,0,0,0,0,0,0,0,0,0,0,0,0,0,0,0,0],"split_type":[0,0,0,0,0,0,0,0,0,0,0,0,0,0,0,0,0,0,0,0,0,0,0,0,0,0,0,0,0,0,0,0,0,0,0,0,0,0,0,0,0,0,0,0,0,0,0,0,0,0,0,0,0,0,0,0,0,0,0,0,0,0,0,0,0,0,0,0,0,0,0,0,0,0,0,0,0,0,0,0,0,0,0,0,0,0,0,0,0,0,0,0,0,0,0,0,0,0,0,0,0,0,0,0,0,0,0,0,0,0,0,0,0,0,0,0,0,0,0,0,0,0,0,0,0,0,0,0,0,0,0,0,0,0,0,0,0],"sum_hessian":[8.09E3,6.54E3,1.55E3,6.414E3,1.26E2,5.69E2,9.81E2,6.224E3,1.9E2,6.2E1,6.4E1,4.43E2,1.26E2,6.64E2,3.17E2,6.191E3,3.3E1,1.25E2,6.5E1,3.2E1,4.11E2,9.5E1,3.1E1,6.32E2,3.2E1,1.26E2,1.91E2,5.97E3,2.21E2,3.1E1,9.4E1,3.3E1,3.2E1,6.3E1,3.48E2,6.3E1,3.2E1,9.5E1,5.37E2,6.3E1,6.3E1,1.26E2,6.5E1,5.626E3,3.44E2,6.3E1,1.58E2,3E1,3.3E1,3.1E1,3.17E2,6.3E1,3.2E1,3.47E2,1.9E2,9.5E1,3.1E1,5.529E3,9.7E1,9.1E1,2.53E2,3.3E1,3E1,1.28E2,3E1,6.4E1,2.53E2,1.26E2,2.21E2,6.4E1,1.26E2,6.3E1,3.2E1,5.371E3,1.58E2,6.2E1,3.5E1,2.8E1,6.3E1,1.58E2,9.5E1,3.3E1,9.5E1,3E1,2.23E2,3.1E1,9.5E1,3.2E1,1.89E2,6.3E1,6.3E1,3.2E1,3.1E1,5.18E3,1.91E2,6.2E1,9.6E1,3.3E1,3E1,1.28E2,3E1,6.5E1,3E1,3.2E1,6.3E1,6.5E1,1.58E2,6.4E1,3.1E1,6.3E1,1.26E2,3.1E1,3.2E1,3.2E1,5.148E3,6.3E1,1.28E2,3.4E1,2.8E1,6.3E1,3.3E1,9.5E1,3.3E1,3.2E1,3.3E1,2.9E1,3.4E1,3.3E1,3.2E1,3.1E1,1.27E2,3.2E1,3.2E1,3.1E1,3.2E1,9.5E1,3.1E1],"tree_param":{"num_deleted":"0","num_feature":"3","num_nodes":"137","size_leaf_vector":"1"}},{"base_weights":[-0E0,-6.790347E-3,2.4745807E-2,-7.8033697E-4,-5.5546932E-2,4.605398E-2,-1.5413499E-2,-1.6906863E-3,1.6666353E-3,-5.099128E-2,-9.81036E-2,1.4391589E-3,3.9909847E-2,-1.5108417E-3,-7.62176E-3,2.2635867E-3,-2.0452835E-2,-6.0254153E-2,-2.2664208E-2,-1.4294147E-3,-4.2536136E-4,-3.449272E-2,5.5831127E-2,9.499589E-3,-6.7267165E-2,1.0615058E-3,1.9007538E-3,-9.022318E-2,3.6813938E-3,-4.8912674E-2,-1.3303538E-1,4.0688764E-4,-4.087603E-2,-4.2828578E-3,-4.877001E-2,8.1481375E-2,3.8854517E-2,-1.34912E-2,4.0831964E-2,-1.318244E-3,-4.357999E-2,-6.941328E-3,1.6012836E-2,-5.72035E-2,-1.4293052E-1,1.4337714E-1,-9.329837E-3,-7.128996E-2,-4.185193E-2,-1.921912E-3,-6.019613E-4,-7.4821734E-4,-2.8446939E-2,-7.4651843E-4,5.706189E-4,-7.098557E-4,-3.938827E-4,5.2344635E-2,1.569854E-1,-1.137948E-1,5.9550732E-2,1.4521478E-3,-1.1360685E-3,1.5520796E-3,1.6927162E-2,3.0314256E-4,-8.026235E-2,6.396962E-3,-4.8921607E-2,3.9894596E-2,-1.8915656E-3,-8.1755385E-2,5.222754E-4,-1.1373827E-3,-1.9218428E-3,1.9554887E-3,7.9988607E-4,-1.1901307E-3,-2.7459355E-3,-5.250088E-4,-1.0140003E-3,6.9196586E-4,-5.5693496E-2,-0E0,-4.4015843E-2,9.836052E-4,3.5558354E-2,1.2749479E-3,2.0407138E-3,-7.1154034E-4,-1.5108702E-3,1.539229E-3,4.423749E-2,-1.9542387E-2,5.5150257E-4,-4.0956255E-4,3.2621853E-2,-1.0130879E-3,-5.453308E-4,-1.7633034E-2,1.9233877E-2,-9.238677E-2,-3.659047E-2,1.1187798E-2,1.0042802E-1,-1.6068429E-3,9.838767E-3,-1.0439341E-1,-5.7080353E-4,-3.885048E-2,3.5157413E-3,-1.0720164E-3,-4.882116E-2,-7.1031385E-4,-1.0611696E-4,2.2419017E-2,4.689381E-2,-8.248961E-4,6.770386E-2,-1.3218673E-3,-8.8688766E-4,2.1674288E-2,6.132011E-4,-8.334307E-3,-1.1982598E-1,8.408832E-2,1.4678773E-2,-6.289717E-2,-1.0786177E-1,-1.2292822E-2,-8.297874E-2,3.7931357E-2,-2.9382195E-2,1.6841074E-3,6.931026E-2,-2.2906585E-2,2.9544007E-2,-5.721608E-4,-1.4278402E-3,-4.449601E-3,-1.0135975E-3,7.56072E-4,-1.1495749E-2,-1.2215496E-2,-6.0499415E-2,3.9430484E-4,-1.0198818E-4,3.7683163E-2,6.130034E-4,1.3496222E-1,2.8471809E-2,1.3783277E-4,-7.5421575E-3,3.944275E-4,-1.0412251E-4,3.044743E-4,-2.5641226E-4,-1.428559E-3,-8.848714E-4,1.3894476E-4,1.1740564E-3,-1.0144464E-3,1.7557094E-4,-8.849239E-4,-2.7827724E-4,-1.5566312E-3,-7.5729814E-4,-3.5845078E-4,2.1242542E-4,-1.108793E-3,-2.0176265E-4,1.4188077E-4,8.398112E-4,-6.5461214E-4,3.9417503E-4,3.9295066E-4,8.8350073E-4,6.5932225E-5,-6.650625E-4,1.1836259E-3,2.6932898E-5,-1.0152458E-4,-0E0,-6.075402E-4,1.4070162E-5,-2.5263568E-4,-0E0,-8.918945E-4,-4.455176E-4,5.6984846E-4,1.3624363E-4,1.008997E-3,2.2590093E-3,-8.2414213E-4,7.3555036E-4,-1.2235352E-4,-0E0],"categories":[],"categories_nodes":[],"categories_segments":[],"categories_sizes":[],"default_left":[0,0,0,0,0,0,0,0,0,0,0,0,0,0,0,0,0,0,0,0,0,0,0,0,0,0,0,0,0,0,0,0,0,0,0,0,0,0,0,0,0,0,0,0,0,0,0,0,0,0,0,0,0,0,0,0,0,0,0,0,0,0,0,0,0,0,0,0,0,0,0,0,0,0,0,0,0,0,0,0,0,0,0,0,0,0,0,0,0,0,0,0,0,0,0,0,0,0,0,0,0,0,0,0,0,0,0,0,0,0,0,0,0,0,0,0,0,0,0,0,0,0,0,0,0,0,0,0,0,0,0,0,0,0,0,0,0,0,0,0,0,0,0,0,0,0,0,0,0,0,0,0,0,0,0,0,0,0,0,0,0,0,0,0,0,0,0,0,0,0,0,0,0,0,0,0,0,0,0,0,0,0,0,0,0,0,0,0,0,0,0,0,0,0,0,0,0],"id":1,"left_children":[1,3,5,7,9,11,13,15,-1,17,19,-1,21,-1,23,25,27,29,31,-1,-1,33,35,37,39,41,-1,43,45,47,49,-1,51,53,55,57,59,61,63,-1,65,67,69,71,73,75,77,79,81,-1,-1,-1,83,-1,-1,-1,-1,85,87,89,91,93,-1,-1,95,-1,97,99,101,103,105,107,-1,-1,-1,-1,-1,-1,109,-1,-1,-1,111,-1,113,-1,115,-1,-1,-1,-1,-1,117,119,-1,-1,121,-1,-1,123,125,127,129,131,133,-1,135,137,-1,139,141,-1,143,-1,-1,145,147,-1,149,151,-1,153,-1,155,157,159,161,163,165,167,169,171,173,-1,175,177,179,-1,-1,181,-1,-1,183,185,187,-1,-1,189,-1,191,193,-1,195,-1,-1,-1,-1,-1,-1,-1,-1,-1,-1,-1,-1,-1,-1,-1,-1,-1,-1,-1,-1,-1,-1,-1,-1,-1,-1,-1,-1,-1,-1,-1,-1,-1,-1,-1,-1,-1,-1,-1,-1,-1,-1,-1,-1],"loss_changes":[1.3595133E0,1.8550493E0,1.4944407E0,8.4594214E-1,1.1483002E-1,6.6132855E-1,6.2041545E-1,4.1933602E-1,0E0,1.5617323E-1,1.3482976E-1,0E0,1.2774879E0,0E0,5.905478E-1,1.0291373E0,1.6658981E0,3.6573422E-1,1.8628561E-1,0E0,0E0,7.600437E-2,3.710482E-1,3.2312307E-1,1.7397869E-1,5.5333656E-1,0E0,4.1386676E-1,1.3434178E0,5.0798416E-2,2.3034167E-1,0E0,4.070589E-2,2.8229192E-1,1.2427568E-2,7.40829E-1,1.7010357E0,3.928765E-1,4.9964505E-1,0E0,2.703576E-1,1.6860806E0,6.940038E-1,4.3441403E-1,8.558071E-2,1.6515136E-1,4.7061133E-1,3.2465875E-2,4.9283373E-1,0E0,0E0,0E0,4.4369936E-2,0E0,0E0,0E0,0E0,1.8008167E-1,7.413077E-2,6.879622E-2,6.5981793E-1,2.54914E-1,0E0,0E0,1.4494812E-1,0E0,1.4630765E-2,7.031962E-1,3.728397E-1,1.193693E0,1.7322046E0,5.1069617E-2,0E0,0E0,0E0,0E0,0E0,0E0,1.4677553E-1,0E0,0E0,0E0,8.004868E-2,0E0,4.7935084E-2,0E0,2.031608E-2,0E0,0E0,0E0,0E0,0E0,1.2263484E0,1.9120309E-1,0E0,0E0,3.0271843E-2,0E0,0E0,7.378444E-1,4.284721E-1,4.8243403E-2,6.307874E-1,5.151678E-1,4.3418956E-1,0E0,5.549693E-1,8.955634E-2,0E0,1.9540393E-1,5.89504E-1,0E0,1.00999475E-1,0E0,0E0,5.548377E-2,6.6292286E-4,0E0,8.9807594E-1,1.15065165E-2,0E0,5.8046073E-2,0E0,4.882569E-1,1.1137307E-2,2.0975101E-1,4.5898917E-1,3.8864464E-2,1.18667364E-1,2.991991E-1,3.245889E-1,3.0278948E-1,4.693609E-1,0E0,7.234377E-2,4.1929412E-1,1.2706208E0,0E0,0E0,1.7219672E-3,0E0,0E0,2.8884792E-1,1.2001234E-2,7.004225E-2,0E0,0E0,2.2811472E-2,0E0,3.3792186E-1,1.1149764E0,0E0,4.2698723E-3,0E0,0E0,0E0,0E0,0E0,0E0,0E0,0E0,0E0,0E0,0E0,0E0,0E0,0E0,0E0,0E0,0E0,0E0,0E0,0E0,0E0,0E0,0E0,0E0,0E0,0E0,0E0,0E0,0E0,0E0,0E0,0E0,0E0,0E0,0E0,0E0,0E0,0E0,0E0,0E0,0E0,0E0,0E0,0E0],"parents":[2147483647,0,0,1,1,2,2,3,3,4,4,5,5,6,6,7,7,9,9,10,10,12,12,14,14,15,15,16,16,17,17,18,18,21,21,22,22,23,23,24,24,25,25,27,27,28,28,29,29,30,30,32,32,33,33,34,34,35,35,36,36,37,37,38,38,40,40,41,41,42,42,43,43,44,44,45,45,46,46,47,47,48,48,52,52,57,57,58,58,59,59,60,60,61,61,64,64,66,66,67,67,68,68,69,69,70,70,71,71,78,78,82,82,84,84,86,86,92,92,93,93,96,96,99,99,100,100,101,101,102,102,103,103,104,104,106,106,107,107,109,109,110,110,112,112,115,115,116,116,118,118,119,119,121,121,123,123,124,124,125,125,126,126,127,127,128,128,129,129,130,130,131,131,132,132,134,134,135,135,136,136,139,139,142,142,143,143,144,144,147,147,149,149,150,150,152,152],"right_children":[2,4,6,8,10,12,14,16,-1,18,20,-1,22,-1,24,26,28,30,32,-1,-1,34,36,38,40,42,-1,44,46,48,50,-1,52,54,56,58,60,62,64,-1,66,68,70,72,74,76,78,80,82,-1,-1,-1,84,-1,-1,-1,-1,86,88,90,92,94,-1,-1,96,-1,98,100,102,104,106,108,-1,-1,-1,-1,-1,-1,110,-1,-1,-1,112,-1,114,-1,116,-1,-1,-1,-1,-1,118,120,-1,-1,122,-1,-1,124,126,128,130,132,134,-1,136,138,-1,140,142,-1,144,-1,-1,146,148,-1,150,152,-1,154,-1,156,158,160,162,164,166,168,170,172,174,-1,176,178,180,-1,-1,182,-1,-1,184,186,188,-1,-1,190,-1,192,194,-1,196,-1,-1,-1,-1,-1,-1,-1,-1,-1,-1,-1,-1,-1,-1,-1,-1,-1,-1,-1,-1,-1,-1,-1,-1,-1,-1,-1,-1,-1,-1,-1,-1,-1,-1,-1,-1,-1,-1,-1,-1,-1,-1,-1,-1],"split_conditions":[4.3616E1,3.7838E1,7.8626E1,3.7758E1,4.216E1,4.4822E1,7.925E1,3.1758E1,1.6666353E-3,4.0316E1,4.3014E1,1.4391589E-3,4.8364E1,-1.5108417E-3,8.685E1,3.1652E1,3.2868E1,3.99E1,4.0494E1,-1.4294147E-3,-4.2536136E-4,4.6148E1,6.4624E1,8.3052E1,8.7336E1,2.1652E1,1.9007538E-3,3.2366E1,3.316E1,3.8134E1,4.0106E1,4.0688764E-4,4.0792E1,4.5306E1,4.6626E1,6.1868E1,6.5686E1,8.2292E1,8.3848E1,-1.318244E-3,8.7856E1,1.7432E1,2.7326E1,3.223E1,3.264E1,3.3024E1,3.3338E1,3.8026E1,3.8322E1,-1.921912E-3,-6.019613E-4,-7.4821734E-4,4.1462E1,-7.4651843E-4,5.706189E-4,-7.098557E-4,-3.938827E-4,5.2152E1,6.42E1,6.5092E1,6.7964E1,8.152E1,-1.1360685E-3,1.5520796E-3,8.461E1,3.0314256E-4,9.0184E1,9.75E0,1.8122E1,2.6072E1,2.7594E1,3.1968E1,5.222754E-4,-1.1373827E-3,-1.9218428E-3,1.9554887E-3,7.9988607E-4,-1.1901307E-3,3.4482E1,-5.250088E-4,-1.0140003E-3,6.9196586E-4,3.849E1,-0E0,4.1718E1,9.836052E-4,5.7274E1,1.2749479E-3,2.0407138E-3,-7.1154034E-4,-1.5108702E-3,1.539229E-3,7.1118E1,8.116E1,5.5150257E-4,-4.0956255E-4,8.6344E1,-1.0130879E-3,-5.453308E-4,9.378E0,1.0832E1,1.7594E1,2.0552E1,2.4378E1,2.6576E1,-1.6068429E-3,2.9194E1,3.185E1,-5.7080353E-4,3.3908E1,3.5628E1,-1.0720164E-3,3.884E1,-7.1031385E-4,-1.0611696E-4,5.5728E1,6.0554E1,-8.248961E-4,7.4554E1,7.9682E1,-8.8688766E-4,8.578E1,6.132011E-4,7.158E0,9.452E0,1.0186E1,1.1178E1,1.7506E1,1.7816E1,1.9484E1,2.1068E1,2.338E1,2.5262E1,1.6841074E-3,2.6908E1,2.8622E1,2.9854E1,-5.721608E-4,-1.4278402E-3,3.355E1,-1.0135975E-3,7.56072E-4,3.6224E1,3.867E1,3.9146E1,3.9430484E-4,-1.0198818E-4,5.9288E1,6.130034E-4,7.3948E1,7.5814E1,1.3783277E-4,8.0802E1,3.944275E-4,-1.0412251E-4,3.044743E-4,-2.5641226E-4,-1.428559E-3,-8.848714E-4,1.3894476E-4,1.1740564E-3,-1.0144464E-3,1.7557094E-4,-8.849239E-4,-2.7827724E-4,-1.5566312E-3,-7.5729814E-4,-3.5845078E-4,2.1242542E-4,-1.108793E-3,-2.0176265E-4,1.4188077E-4,8.398112E-4,-6.5461214E-4,3.9417503E-4,3.9295066E-4,8.8350073E-4,6.5932225E-5,-6.650625E-4,1.1836259E-3,2.6932898E-5,-1.0152458E-4,-0E0,-6.075402E-4,1.4070162E-5,-2.5263568E-4,-0E0,-8.918945E-4,-4.455176E-4,5.6984846E-4,1.3624363E-4,1.008997E-3,2.2590093E-3,-8.2414213E-4,7.3555036E-4,-1.2235352E-4,-0E0],"split_indices":[0,0,0,0,0,0,0,0,0,0,0,0,0,0,0,0,0,0,0,0,0,0,0,0,0,0,0,0,0,0,0,0,0,0,0,0,0,0,0,0,0,0,0,0,0,0,0,0,0,0,0,0,0,0,0,0,0,0,0,0,0,0,0,0,0,0,0,0,0,0,0,0,0,0,0,0,0,0,0,0,0,0,0,0,0,0,0,0,0,0,0,0,0,0,0,0,0,0,0,0,0,0,0,0,0,0,0,0,0,0,0,0,0,0,0,0,0,0,0,0,0,0,0,0,0,0,0,0,0,0,0,0,0,0,0,0,0,0,0,0,0,0,0,0,0,0,0,0,0,0,0,0,0,0,0,0,0,0,0,0,0,0,0,0,0,0,0,0,0,0,0,0,0,0,0,0,0,0,0,0,0,0,0,0,0,0,0,0,0,0,0,0,0,0,0,0,0],"split_type":[0,0,0,0,0,0,0,0,0,0,0,0,0,0,0,0,0,0,0,0,0,0,0,0,0,0,0,0,0,0,0,0,0,0,0,0,0,0,0,0,0,0,0,0,0,0,0,0,0,0,0,0,0,0,0,0,0,0,0,0,0,0,0,0,0,0,0,0,0,0,0,0,0,0,0,0,0,0,0,0,0,0,0,0,0,0,0,0,0,0,0,0,0,0,0,0,0,0,0,0,0,0,0,0,0,0,0,0,0,0,0,0,0,0,0,0,0,0,0,0,0,0,0,0,0,0,0,0,0,0,0,0,0,0,0,0,0,0,0,0,0,0,0,0,0,0,0,0,0,0,0,0,0,0,0,0,0,0,0,0,0,0,0,0,0,0,0,0,0,0,0,0,0,0,0,0,0,0,0,0,0,0,0,0,0,0,0,0,0,0,0,0,0,0,0,0,0],"sum_hessian":[8.09E3,6.349E3,1.741E3,5.655E3,6.94E2,1.139E3,6.02E2,5.626E3,2.9E1,6.31E2,6.3E1,6.5E1,1.074E3,3.1E1,5.71E2,4.643E3,9.83E2,4.72E2,1.59E2,3.3E1,3E1,1.88E2,8.86E2,4.43E2,1.28E2,4.615E3,2.8E1,2.53E2,7.3E2,4.11E2,6.1E1,3.4E1,1.25E2,6.3E1,1.25E2,3.49E2,5.37E2,2.54E2,1.89E2,3.2E1,9.6E1,3.002E3,1.613E3,1.58E2,9.5E1,6.2E1,6.68E2,9.3E1,3.18E2,3.2E1,2.9E1,3E1,9.5E1,3E1,3.3E1,3.2E1,9.3E1,2.54E2,9.5E1,6.3E1,4.74E2,2.21E2,3.3E1,3.1E1,1.58E2,3.1E1,6.5E1,2.277E3,7.25E2,6.93E2,9.2E2,1.3E2,2.8E1,6.3E1,3.2E1,3.2E1,3E1,3.6E1,6.32E2,6.1E1,3.2E1,3.4E1,2.84E2,3.3E1,6.2E1,6.5E1,1.89E2,6.2E1,3.3E1,3.2E1,3.1E1,6.4E1,4.1E2,1.58E2,6.3E1,3.2E1,1.26E2,3.2E1,3.3E1,7.9E2,1.487E3,1.57E2,5.68E2,4.72E2,2.21E2,6.3E1,8.57E2,6.4E1,6.6E1,9.5E1,5.37E2,3E1,2.54E2,3.2E1,3E1,9.3E1,9.6E1,6.3E1,3.47E2,1.27E2,3.1E1,9.5E1,3.1E1,7.26E2,6.4E1,9.5E1,1.392E3,5.8E1,9.9E1,3.75E2,1.93E2,2.86E2,1.86E2,6.7E1,1.54E2,3.2E2,5.37E2,3.1E1,3.3E1,6.3E1,3.2E1,9.3E1,4.44E2,6.4E1,1.9E2,6.3E1,3E1,6.5E1,3.1E1,1.26E2,2.21E2,3.2E1,9.5E1,6.3E1,3.2E1,2.22E2,5.04E2,3.3E1,3.1E1,3.2E1,6.3E1,3.2E1,1.36E3,3.1E1,2.7E1,3.7E1,6.2E1,2.22E2,1.53E2,1.32E2,6.1E1,1.91E2,9.5E1,1.23E2,6.3E1,6.3E1,9.1E1,1.9E2,1.3E2,1.23E2,4.14E2,2.8E1,3.5E1,9.3E1,3.51E2,3.3E1,3.1E1,6.4E1,1.26E2,3.3E1,3.2E1,9.4E1,3.2E1,6.3E1,1.58E2,6.4E1,3.1E1],"tree_param":{"num_deleted":"0","num_feature":"3","num_nodes":"197","size_leaf_vector":"1"}},{"base_weights":[-0E0,-5.87295E-3,2.6023367E-2,-4.630907E-4,-3.3629607E-2,6.664262E-2,-1.5069994E-3,-8.106733E-3,8.798055E-3,-5.2675992E-2,-2.6553757E-3,4.7422893E-2,2.2620528E-3,1.253846E-2,-6.602942E-2,2.6048908E-3,-5.1676463E-2,5.135764E-2,-3.750107E-3,-2.501771E-2,-8.247015E-2,5.580947E-3,-1.0728827E-3,6.516702E-2,-9.418871E-3,3.6697016E-5,1.3851741E-1,-8.2457147E-4,-5.347886E-2,-1.9758433E-2,1.406859E-2,-1.38636E-1,-3.5083104E-2,3.4459464E-2,1.0695947E-1,-1.5396818E-2,1.9850755E-2,-5.493853E-4,-1.3288477E-2,-9.780011E-2,-7.10414E-2,-2.957763E-3,3.2091662E-2,4.5135196E-2,1.289291E-3,1.0961432E-2,-7.1451906E-4,-1.1988953E-3,6.2572383E-3,1.6526944E-3,1.0453757E-3,-2.5486076E-4,-6.472568E-4,-8.9011695E-3,-1.00845195E-1,2.248089E-3,9.600513E-3,-2.1662142E-3,-1.0131939E-1,9.305273E-4,-4.3833658E-2,5.831683E-2,1.0318824E-2,7.967005E-4,1.3272073E-3,-4.0497524E-3,-1.2153125E-1,4.130229E-2,-6.5478E-3,1.2996411E-3,-3.904178E-2,-6.95202E-2,-1.7183163E-3,4.839062E-4,-9.450901E-2,1.4839824E-2,-6.676561E-2,1.0459775E-3,-4.233219E-3,5.485664E-2,-4.3096713E-4,-4.3292906E-2,1.2394801E-3,9.1796403E-4,-3.3496213E-3,2.1240007E-2,-2.236477E-2,-1.6123469E-3,-6.656865E-2,2.614202E-2,-9.653325E-3,-2.4116148E-4,-1.8188179E-3,-7.673189E-2,-3.174243E-2,3.755647E-2,1.8958966E-3,-1.9814478E-2,2.3011984E-2,6.8447976E-3,-3.763087E-2,-2.127595E-3,-8.775882E-2,2.8332157E-2,1.55108E-3,-1.8196484E-3,1.3035111E-2,-1.2905954E-2,5.726467E-4,-1.0680183E-3,-4.047981E-3,-7.990596E-4,-4.1940185E-4,-1.3117851E-3,-8.3449155E-2,-3.4164684E-4,5.270367E-4,-8.8347105E-4,-4.0784577E-4,-5.7100103E-4,4.4129614E-4,3.98383E-2,8.3280236E-2,-1.09439556E-4,-7.1299647E-4,-4.460879E-2,4.6987385E-3,4.207779E-2,4.664482E-3,-1.074051E-1,-2.4589521E-3,-2.561948E-4,-1.012294E-3,1.4812383E-3,6.759741E-2,-8.857007E-4,6.65986E-3,-4.3346856E-2,-1.8230487E-3,6.565903E-4,-5.5221576E-2,5.4362783E-4,-4.15272E-4,2.5398802E-4,-7.870632E-4,1.0887776E-3,-1.2959191E-3,4.9999764E-4,1.9000391E-3,-1.0767159E-3,-1.5556997E-2,-1.03802755E-4,-1.2654131E-3,8.119049E-4,2.1154659E-2,-2.4970733E-2,5.1720366E-2,3.0355022E-4,-2.823351E-2,-2.5081294E-4,1.5925588E-4,-6.636478E-2,-9.766712E-4,2.7717787E-4,-8.70418E-3,6.052945E-2,-5.51538E-4,6.9973536E-4,1.0353321E-3,-5.156896E-2,-2.616943E-4,1.2263596E-3,-1.37212565E-2,1.5081762E-2,9.2473533E-4,-4.114518E-4,2.1404631E-2,-2.597839E-4,-1.4487774E-3,7.456718E-4,-9.4047515E-3,1.7222641E-2,-2.448429E-3,5.613088E-2,1.1134929E-3,3.847086E-2,-4.56805E-3,-1.980158E-2,-7.9915195E-4,-7.157654E-2,-2.2760969E-2,-2.8334249E-2,2.2932738E-2,-2.2405937E-2,1.1946723E-2,-3.249459E-2,2.1808945E-2,-7.8571844E-4,3.28053E-2,-2.6643358E-3,-8.868166E-4,1.0408611E-1,-4.089711E-3,-1.9766318E-2,-4.0768867E-4,-8.383753E-4,-4.183451E-4,-4.0003765E-4,1.3127412E-3,7.017158E-2,1.5227366E-4,-2.6317747E-4,-7.146198E-4,-3.7041824E-2,5.849143E-3,4.3660926E-4,-1.0924121E-4,7.908886E-5,4.3899272E-4,-2.882126E-4,9.637134E-5,1.1912226E-4,9.255184E-4,7.783036E-4,-8.4263715E-4,5.9217506E-4,2.2210261E-4,-2.0500824E-4,2.3590907E-4,-5.440556E-4,1.800314E-4,-4.7462978E-4,-1.9285543E-3,8.4257525E-5,-8.034955E-4,-1.0359118E-4,-4.436339E-4,5.249261E-4,-1.11047855E-4,1.7054049E-4,-2.72167E-4,2.1975974E-3,-1.7953129E-5,-1.8087443E-4,-5.113463E-4,7.484599E-4,-2.4636375E-4,1.362987E-3,1.5266359E-4,2.518107E-4,-2.0402565E-4,1.2390189E-3,8.0803013E-4,-7.909427E-4,5.7063875E-4,-4.0592186E-4,-0E0,1.5827667E-4,-4.1759373E-5,4.6442536E-4,1.3476388E-3,-1.9551942E-4,-1.1966211E-3,2.944292E-4,-5.1295536E-4],"categories":[],"categories_nodes":[],"categories_segments":[],"categories_sizes":[],"default_left":[0,0,0,0,0,0,0,0,0,0,0,0,0,0,0,0,0,0,0,0,0,0,0,0,0,0,0,0,0,0,0,0,0,0,0,0,0,0,0,0,0,0,0,0,0,0,0,0,0,0,0,0,0,0,0,0,0,0,0,0,0,0,0,0,0,0,0,0,0,0,0,0,0,0,0,0,0,0,0,0,0,0,0,0,0,0,0,0,0,0,0,0,0,0,0,0,0,0,0,0,0,0,0,0,0,0,0,0,0,0,0,0,0,0,0,0,0,0,0,0,0,0,0,0,0,0,0,0,0,0,0,0,0,0,0,0,0,0,0,0,0,0,0,0,0,0,0,0,0,0,0,0,0,0,0,0,0,0,0,0,0,0,0,0,0,0,0,0,0,0,0,0,0,0,0,0,0,0,0,0,0,0,0,0,0,0,0,0,0,0,0,0,0,0,0,0,0,0,0,0,0,0,0,0,0,0,0,0,0,0,0,0,0,0,0,0,0,0,0,0,0,0,0,0,0,0,0,0,0,0,0,0,0,0,0,0,0,0,0,0,0,0,0,0,0,0,0,0,0,0,0,0,0,0,0,0,0,0,0,0,0,0,0,0,0],"id":2,"left_children":[1,3,5,7,9,11,13,15,17,19,21,23,-1,25,27,29,31,33,35,37,39,41,-1,43,45,47,49,-1,51,53,55,57,59,61,63,65,67,-1,69,71,73,75,77,79,-1,81,-1,-1,83,-1,-1,-1,-1,85,87,-1,89,-1,91,-1,93,95,97,-1,-1,99,101,103,105,107,109,111,-1,-1,113,115,117,-1,119,121,-1,123,-1,-1,125,127,129,-1,131,133,135,-1,-1,137,139,141,-1,143,145,147,149,-1,151,153,-1,-1,155,157,-1,-1,159,-1,-1,-1,161,163,-1,-1,-1,-1,-1,165,167,-1,-1,169,171,173,175,177,179,-1,-1,181,183,-1,185,187,-1,-1,189,-1,-1,-1,-1,-1,191,193,-1,-1,195,-1,-1,-1,197,199,201,-1,203,-1,-1,205,-1,-1,207,209,-1,-1,-1,211,-1,-1,213,215,-1,-1,217,-1,-1,-1,219,221,-1,223,-1,225,227,229,-1,231,233,235,237,239,241,243,245,-1,247,249,-1,251,253,255,-1,-1,-1,-1,257,259,-1,-1,-1,261,263,-1,-1,-1,-1,-1,-1,-1,-1,-1,-1,-1,-1,-1,-1,-1,-1,-1,-1,-1,-1,-1,-1,-1,-1,-1,-1,-1,-1,-1,-1,-1,-1,-1,-1,-1,-1,-1,-1,-1,-1,-1,-1,-1,-1,-1,-1,-1,-1,-1,-1],"loss_changes":[1.2361218E0,9.880791E-1,1.6717075E0,3.9146474E-1,6.279303E-1,1.8111606E0,8.100181E-1,1.4219507E0,1.3373946E0,5.335367E-1,3.658271E-1,5.5083656E-1,0E0,1.1327096E0,1.4985025E-2,6.2421757E-1,8.4497774E-1,5.177269E-1,5.292645E-1,1.1422631E-1,3.170705E-2,8.9480616E-2,0E0,5.042869E-1,1.6865653E-1,4.8473498E-1,1.4829397E-2,0E0,1.9867688E-2,7.126807E-1,1.4941497E0,2.2272253E-1,5.676356E-1,2.459448E-1,6.0281396E-2,1.544128E0,3.6277345E-1,0E0,9.887508E-2,2.3399413E-1,5.389114E-1,3.3210793E-1,2.6332164E-1,2.754442E-1,0E0,6.0191274E-1,0E0,0E0,5.29328E-1,0E0,0E0,0E0,0E0,2.9601625E-1,1.6520101E-1,0E0,5.057484E-1,0E0,3.9173245E-1,0E0,1.7606026E-1,5.6699944E-1,8.56878E-2,0E0,0E0,4.3138203E-1,3.3332074E-1,4.9683988E-1,9.914198E-1,1.3237758E-1,2.1137373E-1,1.1962295E-2,0E0,0E0,3.207445E-2,1.3401589E-1,1.9369036E-2,0E0,1.6745156E-1,1.06883585E-1,0E0,4.9884625E-2,0E0,0E0,1.9314767E-1,7.215309E-2,8.4530485E-1,0E0,7.555872E-2,8.660553E-1,9.472835E-1,0E0,0E0,4.1010225E-1,8.075719E-1,2.574002E-1,0E0,1.7774218E-1,3.427668E-1,1.0058339E0,4.328164E-1,0E0,2.6408118E-1,1.08694136E-1,0E0,0E0,3.7888423E-1,8.485668E-2,0E0,0E0,2.8202068E-2,0E0,0E0,0E0,7.964134E-3,3.564892E-2,0E0,0E0,0E0,0E0,0E0,3.8125125E-1,1.2767315E-3,0E0,0E0,3.0690283E-3,1.0444657E0,1.1845636E-1,9.70648E-2,2.6902175E-1,2.1460836E-1,0E0,0E0,2.067543E0,1.3603508E-1,0E0,2.1929732E-1,7.1963996E-2,0E0,0E0,1.4024127E-1,0E0,0E0,0E0,0E0,0E0,8.242264E-2,2.2313881E-1,0E0,0E0,1.4227864E-1,0E0,0E0,0E0,3.2681242E-1,1.7253777E-1,3.8450992E-1,0E0,3.3300072E-3,0E0,0E0,1.1356592E-2,0E0,0E0,4.342583E-2,5.9844196E-2,0E0,0E0,0E0,2.0489976E-2,0E0,0E0,1.9091338E-1,5.206035E-2,0E0,0E0,2.3615856E-2,0E0,0E0,0E0,1.426924E-1,1.9126593E-1,0E0,7.8277004E-1,0E0,4.451847E-2,1.9982399E-1,8.572773E-2,0E0,5.1369005E-1,1.8567331E-1,1.16438605E-2,6.911498E-2,5.501321E-2,1.6585495E0,3.3778116E-2,1.7437086E-1,0E0,4.4562975E-1,4.794695E-2,0E0,4.298091E-4,2.9109794E-1,2.936967E-2,0E0,0E0,0E0,0E0,8.720037E-3,1.7334062E-1,0E0,0E0,0E0,2.582926E-1,2.9863846E-1,0E0,0E0,0E0,0E0,0E0,0E0,0E0,0E0,0E0,0E0,0E0,0E0,0E0,0E0,0E0,0E0,0E0,0E0,0E0,0E0,0E0,0E0,0E0,0E0,0E0,0E0,0E0,0E0,0E0,0E0,0E0,0E0,0E0,0E0,0E0,0E0,0E0,0E0,0E0,0E0,0E0,0E0,0E0,0E0,0E0,0E0,0E0,0E0,0E0,0E0],"parents":[2147483647,0,0,1,1,2,2,3,3,4,4,5,5,6,6,7,7,8,8,9,9,10,10,11,11,13,13,14,14,15,15,16,16,17,17,18,18,19,19,20,20,21,21,23,23,24,24,25,25,26,26,28,28,29,29,30,30,31,31,32,32,33,33,34,34,35,35,36,36,38,38,39,39,40,40,41,41,42,42,43,43,45,45,48,48,53,53,54,54,56,56,58,58,60,60,61,61,62,62,65,65,66,66,67,67,68,68,69,69,70,70,71,71,74,74,75,75,76,76,78,78,79,79,81,81,84,84,85,85,86,86,88,88,89,89,90,90,93,93,94,94,95,95,97,97,98,98,99,99,100,100,102,102,103,103,106,106,107,107,110,110,114,114,115,115,121,121,122,122,125,125,126,126,127,127,128,128,129,129,130,130,133,133,134,134,136,136,137,137,140,140,146,146,147,147,150,150,154,154,155,155,156,156,158,158,161,161,164,164,165,165,169,169,172,172,173,173,176,176,180,180,181,181,183,183,185,185,186,186,187,187,189,189,190,190,191,191,192,192,193,193,194,194,195,195,196,196,198,198,199,199,201,201,202,202,203,203,208,208,209,209,213,213,214,214],"right_children":[2,4,6,8,10,12,14,16,18,20,22,24,-1,26,28,30,32,34,36,38,40,42,-1,44,46,48,50,-1,52,54,56,58,60,62,64,66,68,-1,70,72,74,76,78,80,-1,82,-1,-1,84,-1,-1,-1,-1,86,88,-1,90,-1,92,-1,94,96,98,-1,-1,100,102,104,106,108,110,112,-1,-1,114,116,118,-1,120,122,-1,124,-1,-1,126,128,130,-1,132,134,136,-1,-1,138,140,142,-1,144,146,148,150,-1,152,154,-1,-1,156,158,-1,-1,160,-1,-1,-1,162,164,-1,-1,-1,-1,-1,166,168,-1,-1,170,172,174,176,178,180,-1,-1,182,184,-1,186,188,-1,-1,190,-1,-1,-1,-1,-1,192,194,-1,-1,196,-1,-1,-1,198,200,202,-1,204,-1,-1,206,-1,-1,208,210,-1,-1,-1,212,-1,-1,214,216,-1,-1,218,-1,-1,-1,220,222,-1,224,-1,226,228,230,-1,232,234,236,238,240,242,244,246,-1,248,250,-1,252,254,256,-1,-1,-1,-1,258,260,-1,-1,-1,262,264,-1,-1,-1,-1,-1,-1,-1,-1,-1,-1,-1,-1,-1,-1,-1,-1,-1,-1,-1,-1,-1,-1,-1,-1,-1,-1,-1,-1,-1,-1,-1,-1,-1,-1,-1,-1,-1,-1,-1,-1,-1,-1,-1,-1,-1,-1,-1,-1,-1,-1],"split_conditions":[4.80195E1,3.7368E1,7.3145E1,2.1838E1,4.0721E1,7.08675E1,8.6046E1,1.79835E1,2.7024E1,3.86845E1,4.7585E1,6.5955E1,2.2620528E-3,8.52725E1,8.70055E1,1.005E1,1.85155E1,2.63535E1,3.28805E1,3.7728E1,3.95105E1,4.5911E1,-1.0728827E-3,6.4457E1,6.8988E1,7.3812E1,8.56865E1,-8.2457147E-4,8.74015E1,9.338E0,1.0531E1,1.81065E1,1.87115E1,2.4049E1,2.67995E1,3.20765E1,3.61815E1,-5.493853E-4,3.8282E1,3.9259E1,3.96345E1,4.4777E1,4.6642E1,6.3256E1,1.289291E-3,6.76045E1,-7.1451906E-4,-1.1988953E-3,7.5404E1,1.6526944E-3,1.0453757E-3,-2.5486076E-4,-6.472568E-4,7.167E0,9.3835E0,2.248089E-3,1.5543E1,-2.1662142E-3,1.8282E1,9.305273E-4,1.985E1,2.37415E1,2.4555E1,7.967005E-4,1.3272073E-3,3.1026E1,3.22055E1,3.58605E1,3.6336E1,3.81065E1,3.84575E1,3.90925E1,-1.7183163E-3,4.839062E-4,3.9799E1,4.39385E1,4.52995E1,1.0459775E-3,4.7063E1,5.94045E1,-4.3096713E-4,6.67505E1,1.2394801E-3,9.1796403E-4,7.78015E1,6.414E0,7.5805E0,-1.6123469E-3,9.6315E0,1.39865E1,1.60015E1,-2.4116148E-4,-1.8188179E-3,1.9358E1,2.0252E1,2.32625E1,1.8958966E-3,2.44275E1,2.468E1,3.09465E1,3.1287E1,-2.127595E-3,3.2374E1,3.31535E1,1.55108E-3,-1.8196484E-3,3.6944E1,3.77935E1,5.726467E-4,-1.0680183E-3,3.8576E1,-7.990596E-4,-4.1940185E-4,-1.3117851E-3,4.0204E1,4.1246E1,5.270367E-4,-8.8347105E-4,-4.0784577E-4,-5.7100103E-4,4.4129614E-4,5.7406E1,6.17025E1,-1.09439556E-4,-7.1299647E-4,7.68905E1,7.84945E1,6.3065E0,6.4995E0,7.307E0,7.8605E0,-2.561948E-4,-1.012294E-3,1.37715E1,1.52375E1,-8.857007E-4,1.65485E1,1.90135E1,-1.8230487E-3,6.565903E-4,2.0965E1,5.4362783E-4,-4.15272E-4,2.5398802E-4,-7.870632E-4,1.0887776E-3,2.5013E1,2.8374E1,1.9000391E-3,-1.0767159E-3,3.1881E1,-1.03802755E-4,-1.2654131E-3,8.119049E-4,3.3301E1,3.6812E1,3.7198E1,3.0355022E-4,3.7997E1,-2.5081294E-4,1.5925588E-4,4.00155E1,-9.766712E-4,2.7717787E-4,4.19095E1,5.56375E1,-5.51538E-4,6.9973536E-4,1.0353321E-3,7.6049E1,-2.616943E-4,1.2263596E-3,8.0802E1,6.262E0,9.2473533E-4,-4.114518E-4,7.0805E0,-2.597839E-4,-1.4487774E-3,7.456718E-4,8.9255E0,1.35705E1,-2.448429E-3,1.51455E1,1.1134929E-3,1.6186E1,1.73835E1,1.8855E1,-7.9915195E-4,2.0858E1,2.1565E1,2.4818E1,2.57105E1,2.70845E1,2.8475E1,3.171E1,3.19445E1,-7.8571844E-4,3.35395E1,3.65375E1,-8.868166E-4,3.7069E1,3.72825E1,3.7905E1,-4.0768867E-4,-8.383753E-4,-4.183451E-4,-4.0003765E-4,4.2273E1,5.40495E1,1.5227366E-4,-2.6317747E-4,-7.146198E-4,8.0343E1,8.38295E1,4.3660926E-4,-1.0924121E-4,7.908886E-5,4.3899272E-4,-2.882126E-4,9.637134E-5,1.1912226E-4,9.255184E-4,7.783036E-4,-8.4263715E-4,5.9217506E-4,2.2210261E-4,-2.0500824E-4,2.3590907E-4,-5.440556E-4,1.800314E-4,-4.7462978E-4,-1.9285543E-3,8.4257525E-5,-8.034955E-4,-1.0359118E-4,-4.436339E-4,5.249261E-4,-1.11047855E-4,1.7054049E-4,-2.72167E-4,2.1975974E-3,-1.7953129E-5,-1.8087443E-4,-5.113463E-4,7.484599E-4,-2.4636375E-4,1.362987E-3,1.5266359E-4,2.518107E-4,-2.0402565E-4,1.2390189E-3,8.0803013E-4,-7.909427E-4,5.7063875E-4,-4.0592186E-4,-0E0,1.5827667E-4,-4.1759373E-5,4.6442536E-4,1.3476388E-3,-1.9551942E-4,-1.1966211E-3,2.944292E-4,-5.1295536E-4],"split_indices":[1,1,1,1,1,1,1,1,1,1,1,1,0,1,1,1,1,1,1,1,1,1,0,1,1,1,1,0,1,1,1,1,1,1,1,1,1,0,1,1,1,1,1,1,0,1,0,0,1,0,0,0,0,1,1,0,1,0,1,0,1,1,1,0,0,1,1,1,1,1,1,1,0,0,1,1,1,0,1,1,0,1,0,0,1,1,1,0,1,1,1,0,0,1,1,1,0,1,1,1,1,0,1,1,0,0,1,1,0,0,1,0,0,0,1,1,0,0,0,0,0,1,1,0,0,1,1,1,1,1,1,0,0,1,1,0,1,1,0,0,1,0,0,0,0,0,1,1,0,0,1,0,0,0,1,1,1,0,1,0,0,1,0,0,1,1,0,0,0,1,0,0,1,1,0,0,1,0,0,0,1,1,0,1,0,1,1,1,0,1,1,1,1,1,1,1,1,0,1,1,0,1,1,1,0,0,0,0,1,1,0,0,0,1,1,0,0,0,0,0,0,0,0,0,0,0,0,0,0,0,0,0,0,0,0,0,0,0,0,0,0,0,0,0,0,0,0,0,0,0,0,0,0,0,0,0,0,0,0,0,0,0,0,0,0],"split_type":[0,0,0,0,0,0,0,0,0,0,0,0,0,0,0,0,0,0,0,0,0,0,0,0,0,0,0,0,0,0,0,0,0,0,0,0,0,0,0,0,0,0,0,0,0,0,0,0,0,0,0,0,0,0,0,0,0,0,0,0,0,0,0,0,0,0,0,0,0,0,0,0,0,0,0,0,0,0,0,0,0,0,0,0,0,0,0,0,0,0,0,0,0,0,0,0,0,0,0,0,0,0,0,0,0,0,0,0,0,0,0,0,0,0,0,0,0,0,0,0,0,0,0,0,0,0,0,0,0,0,0,0,0,0,0,0,0,0,0,0,0,0,0,0,0,0,0,0,0,0,0,0,0,0,0,0,0,0,0,0,0,0,0,0,0,0,0,0,0,0,0,0,0,0,0,0,0,0,0,0,0,0,0,0,0,0,0,0,0,0,0,0,0,0,0,0,0,0,0,0,0,0,0,0,0,0,0,0,0,0,0,0,0,0,0,0,0,0,0,0,0,0,0,0,0,0,0,0,0,0,0,0,0,0,0,0,0,0,0,0,0,0,0,0,0,0,0,0,0,0,0,0,0,0,0,0,0,0,0,0,0,0,0,0,0],"sum_hessian":[8.09E3,6.602E3,1.488E3,5.529E3,1.073E3,6.02E2,8.86E2,3.035E3,2.494E3,6.62E2,4.11E2,5.39E2,6.3E1,7.27E2,1.59E2,2.435E3,6E2,5.69E2,1.925E3,3.46E2,3.16E2,3.81E2,3E1,4.12E2,1.27E2,6.63E2,6.4E1,6.3E1,9.6E1,8.22E2,1.613E3,9.4E1,5.06E2,4.39E2,1.3E2,1.292E3,6.33E2,9.4E1,2.52E2,1.28E2,1.88E2,2.86E2,9.5E1,3.16E2,9.6E1,9.5E1,3.2E1,3.1E1,6.32E2,3.2E1,3.2E1,3.1E1,6.5E1,7.27E2,9.5E1,3.2E1,1.581E3,2.8E1,6.6E1,3.1E1,4.75E2,2.18E2,2.21E2,6.7E1,6.3E1,1.169E3,1.23E2,3.51E2,2.82E2,1.59E2,9.3E1,9.5E1,3.3E1,3E1,1.58E2,2.23E2,6.3E1,3.2E1,6.3E1,2.86E2,3E1,6.4E1,3.1E1,6.4E1,5.68E2,2.22E2,5.05E2,3.2E1,6.3E1,8.53E2,7.28E2,3.5E1,3.1E1,1.24E2,3.51E2,1.9E2,2.8E1,6.3E1,1.58E2,8.81E2,2.88E2,3.1E1,9.2E1,3.17E2,3.4E1,2.8E1,2.54E2,1.26E2,3.3E1,3E1,6.3E1,6.5E1,3E1,3.2E1,1.26E2,1.58E2,6.5E1,3.1E1,3.2E1,3.1E1,3.2E1,1.91E2,9.5E1,3.2E1,3.2E1,9.4E1,4.74E2,9.5E1,1.27E2,9.4E1,4.11E2,3.1E1,3.2E1,5.37E2,3.16E2,1.25E2,6.03E2,9.6E1,2.8E1,6.7E1,2.84E2,1.58E2,3.2E1,3.5E1,2.8E1,3.5E1,1.23E2,8.53E2,2.8E1,6.7E1,2.21E2,3.2E1,6E1,3.5E1,2.82E2,1.27E2,1.27E2,3.1E1,9.5E1,3.3E1,3E1,6.3E1,6.3E1,3.3E1,1.25E2,1.58E2,3.3E1,6.3E1,3.2E1,6.3E1,3.1E1,6.4E1,4.1E2,6.4E1,3.1E1,3.2E1,9.5E1,3.1E1,6.3E1,3.2E1,3.79E2,5.06E2,3.1E1,2.54E2,6.2E1,1.59E2,4.44E2,6.1E1,3.5E1,1.86E2,9.8E1,6E1,6.3E1,2.81E2,5.72E2,1.54E2,6.7E1,2.8E1,2.54E2,9.6E1,3.1E1,6.6E1,6.1E1,6.3E1,3.2E1,3.3E1,3E1,3.2E1,9.3E1,1.28E2,3E1,3.1E1,3.2E1,1.89E2,2.21E2,3.2E1,3.2E1,6.3E1,3.2E1,1.9E2,1.89E2,4.75E2,3.1E1,2.21E2,3.3E1,6.6E1,9.3E1,2.86E2,1.58E2,3.3E1,2.8E1,1.57E2,2.9E1,6.3E1,3.5E1,3.2E1,2.8E1,3.5E1,2.8E1,2.8E1,2.53E2,3.5E1,5.37E2,9.1E1,6.3E1,3.2E1,3.5E1,3.5E1,2.19E2,3.5E1,6.1E1,3.1E1,3.5E1,2.8E1,3.3E1,3.2E1,3.1E1,3E1,6.3E1,9.6E1,3.2E1,1.58E2,3.1E1,1.58E2,6.3E1],"tree_param":{"num_deleted":"0","num_feature":"3","num_nodes":"265","size_leaf_vector":"1"}},{"base_weights":[-0E0,-6.671122E-3,2.4288902E-2,-7.6020305E-4,-5.4621458E-2,4.523923E-2,-1.5193122E-2,-1.6620549E-3,1.6508914E-3,-5.0072595E-2,-9.7125545E-2,1.4230196E-3,3.9144922E-2,-1.4960283E-3,-7.472312E-3,2.243305E-3,-2.0193385E-2,-5.923891E-2,-2.2036716E-2,-1.4141689E-3,-4.2189052E-4,-3.4081727E-2,5.48165E-2,9.417225E-3,-6.632101E-2,1.0519867E-3,1.8834267E-3,-8.9047834E-2,3.622243E-3,-4.8037264E-2,-1.3110729E-1,4.0895987E-4,-4.013678E-2,-4.2434935E-3,-4.8173513E-2,8.02015E-2,3.8014334E-2,-1.3326603E-2,4.0418588E-2,-1.3046712E-3,-4.2783458E-2,-6.807403E-3,1.5736433E-2,-5.644188E-2,-1.410822E-1,1.420773E-1,-9.272062E-3,-7.037159E-2,-4.099192E-2,-1.8967337E-3,-5.898103E-4,-7.352391E-4,-2.789576E-2,-7.407357E-4,5.660874E-4,-7.010121E-4,-3.889918E-4,5.1434215E-2,1.5473749E-1,-1.1339416E-1,5.854513E-2,1.4694796E-3,-1.1248554E-3,1.5361108E-3,1.6754573E-2,3.0214645E-4,-7.9043396E-2,6.312998E-3,-4.810419E-2,3.9207984E-2,-1.8585648E-3,-8.074276E-2,5.1829056E-4,-1.1225567E-3,-1.8968266E-3,1.9365402E-3,7.936408E-4,-1.1785204E-3,-2.75274E-3,-5.180182E-4,-1.0009747E-3,6.879652E-4,-5.468176E-2,-0E0,-4.340843E-2,9.707552E-4,3.478284E-2,1.2558608E-3,2.0126107E-3,-7.104416E-4,-1.5039903E-3,1.5183222E-3,4.3405946E-2,-1.930575E-2,5.4622476E-4,-4.0710924E-4,3.2342028E-2,-9.996245E-4,-5.3473614E-4,-1.7289188E-2,1.8922552E-2,-9.127369E-2,-3.5856586E-2,1.0809888E-2,9.908678E-2,-1.5918273E-3,9.7621875E-3,-1.0331176E-1,-5.614981E-4,-3.8732994E-2,3.4867716E-3,-1.0573446E-3,-4.7868755E-2,-7.007939E-4,-1.0390684E-4,2.1616759E-2,4.6152215E-2,-8.1969856E-4,6.662619E-2,-1.2392031E-3,-8.784363E-4,2.1484323E-2,6.0779456E-4,-8.117874E-3,-1.18062355E-1,8.272499E-2,1.44401705E-2,-6.2161796E-2,-1.0653697E-1,-1.1842446E-2,-8.169917E-2,3.7256576E-2,-2.9302461E-2,1.6631772E-3,6.8307474E-2,-2.282417E-2,2.9372705E-2,-5.6519563E-4,-1.413717E-3,-4.64223E-3,-1.0064439E-3,7.4700965E-4,-1.1339342E-2,-1.1726655E-2,-5.939424E-2,3.83953E-4,-1.04943196E-4,3.7190873E-2,6.006773E-4,1.3283627E-1,2.7998686E-2,1.3689914E-4,-7.3998454E-3,3.897887E-4,-1.0065235E-4,3.0048046E-4,-2.5153285E-4,-1.4069626E-3,-8.7199366E-4,1.4165274E-4,1.1522102E-3,-1.0054306E-3,1.7291021E-4,-8.7519817E-4,-2.738971E-4,-1.5406382E-3,-7.459161E-4,-3.512497E-4,2.129941E-4,-1.0923041E-3,-1.9709562E-4,1.3784364E-4,8.277124E-4,-6.5066916E-4,3.888652E-4,3.8512895E-4,8.720471E-4,6.3150525E-5,-6.589873E-4,1.1720085E-3,2.8183373E-5,-1.0398487E-4,-0E0,-6.013656E-4,1.4398559E-5,-2.4670965E-4,-0E0,-8.7749516E-4,-4.3626624E-4,5.648119E-4,1.3158697E-4,9.911356E-4,2.2286111E-3,-8.1723457E-4,7.2616414E-4,-1.2011601E-4,-0E0],"categories":[],"categories_nodes":[],"categories_segments":[],"categories_sizes":[],"default_left":[0,0,0,0,0,0,0,0,0,0,0,0,0,0,0,0,0,0,0,0,0,0,0,0,0,0,0,0,0,0,0,0,0,0,0,0,0,0,0,0,0,0,0,0,0,0,0,0,0,0,0,0,0,0,0,0,0,0,0,0,0,0,0,0,0,0,0,0,0,0,0,0,0,0,0,0,0,0,0,0,0,0,0,0,0,0,0,0,0,0,0,0,0,0,0,0,0,0,0,0,0,0,0,0,0,0,0,0,0,0,0,0,0,0,0,0,0,0,0,0,0,0,0,0,0,0,0,0,0,0,0,0,0,0,0,0,0,0,0,0,0,0,0,0,0,0,0,0,0,0,0,0,0,0,0,0,0,0,0,0,0,0,0,0,0,0,0,0,0,0,0,0,0,0,0,0,0,0,0,0,0,0,0,0,0,0,0,0,0,0,0,0,0,0,0,0,0],"id":3,"left_children":[1,3,5,7,9,11,13,15,-1,17,19,-1,21,-1,23,25,27,29,31,-1,-1,33,35,37,39,41,-1,43,45,47,49,-1,51,53,55,57,59,61,63,-1,65,67,69,71,73,75,77,79,81,-1,-1,-1,83,-1,-1,-1,-1,85,87,89,91,93,-1,-1,95,-1,97,99,101,103,105,107,-1,-1,-1,-1,-1,-1,109,-1,-1,-1,111,-1,113,-1,115,-1,-1,-1,-1,-1,117,119,-1,-1,121,-1,-1,123,125,127,129,131,133,-1,135,137,-1,139,141,-1,143,-1,-1,145,147,-1,149,151,-1,153,-1,155,157,159,161,163,165,167,169,171,173,-1,175,177,179,-1,-1,181,-1,-1,183,185,187,-1,-1,189,-1,191,193,-1,195,-1,-1,-1,-1,-1,-1,-1,-1,-1,-1,-1,-1,-1,-1,-1,-1,-1,-1,-1,-1,-1,-1,-1,-1,-1,-1,-1,-1,-1,-1,-1,-1,-1,-1,-1,-1,-1,-1,-1,-1,-1,-1,-1,-1],"loss_changes":[1.3102938E0,1.7942044E0,1.4446068E0,8.299083E-1,1.1479187E-1,6.506293E-1,6.08939E-1,4.0907478E-1,0E0,1.52982E-1,1.3139862E-1,0E0,1.2375873E0,0E0,5.748413E-1,1.0104539E0,1.6224401E0,3.5657346E-1,1.8381926E-1,0E0,0E0,7.402344E-2,3.634553E-1,3.1630766E-1,1.7186284E-1,5.337362E-1,0E0,4.0322852E-1,1.3196387E0,5.080849E-2,2.2584474E-1,0E0,3.930229E-2,2.7789593E-1,1.1997074E-2,7.218933E-1,1.6735468E0,3.8539368E-1,4.8932165E-1,0E0,2.640211E-1,1.6315995E0,6.703605E-1,4.2541784E-1,8.3007455E-2,1.6110528E-1,4.6117875E-1,3.1513065E-2,4.8180288E-1,0E0,0E0,0E0,4.4005737E-2,0E0,0E0,0E0,0E0,1.7723519E-1,7.223773E-2,6.74687E-2,6.447239E-1,2.497332E-1,0E0,0E0,1.429026E-1,0E0,1.4614135E-2,6.7845297E-1,3.678671E-1,1.1680472E0,1.7002914E0,5.0962865E-2,0E0,0E0,0E0,0E0,0E0,0E0,1.4576767E-1,0E0,0E0,0E0,7.8707576E-2,0E0,4.6703562E-2,0E0,2.0666555E-2,0E0,0E0,0E0,0E0,0E0,1.2004535E0,1.8786348E-1,0E0,0E0,2.9680997E-2,0E0,0E0,7.174834E-1,4.1463733E-1,4.671371E-2,6.1607337E-1,5.0366384E-1,4.2456603E-1,0E0,5.496175E-1,8.7979734E-2,0E0,1.9162238E-1,5.7521963E-1,0E0,9.841305E-2,0E0,0E0,5.383807E-2,1.3624132E-4,0E0,8.702178E-1,1.1244834E-2,0E0,5.627044E-2,0E0,4.7294155E-1,1.0347605E-2,1.9930935E-1,4.5003855E-1,3.813523E-2,1.17468834E-1,2.9226214E-1,3.160435E-1,2.9581416E-1,4.6119297E-1,0E0,7.13402E-2,4.092806E-1,1.2424026E0,0E0,0E0,1.7565086E-3,0E0,0E0,2.8345352E-1,1.17558865E-2,6.842935E-2,0E0,0E0,2.2889614E-2,0E0,3.3127093E-1,1.0918366E0,0E0,4.121367E-3,0E0,0E0,0E0,0E0,0E0,0E0,0E0,0E0,0E0,0E0,0E0,0E0,0E0,0E0,0E0,0E0,0E0,0E0,0E0,0E0,0E0,0E0,0E0,0E0,0E0,0E0,0E0,0E0,0E0,0E0,0E0,0E0,0E0,0E0,0E0,0E0,0E0,0E0,0E0,0E0,0E0,0E0,0E0,0E0],"parents":[2147483647,0,0,1,1,2,2,3,3,4,4,5,5,6,6,7,7,9,9,10,10,12,12,14,14,15,15,16,16,17,17,18,18,21,21,22,22,23,23,24,24,25,25,27,27,28,28,29,29,30,30,32,32,33,33,34,34,35,35,36,36,37,37,38,38,40,40,41,41,42,42,43,43,44,44,45,45,46,46,47,47,48,48,52,52,57,57,58,58,59,59,60,60,61,61,64,64,66,66,67,67,68,68,69,69,70,70,71,71,78,78,82,82,84,84,86,86,92,92,93,93,96,96,99,99,100,100,101,101,102,102,103,103,104,104,106,106,107,107,109,109,110,110,112,112,115,115,116,116,118,118,119,119,121,121,123,123,124,124,125,125,126,126,127,127,128,128,129,129,130,130,131,131,132,132,134,134,135,135,136,136,139,139,142,142,143,143,144,144,147,147,149,149,150,150,152,152],"right_children":[2,4,6,8,10,12,14,16,-1,18,20,-1,22,-1,24,26,28,30,32,-1,-1,34,36,38,40,42,-1,44,46,48,50,-1,52,54,56,58,60,62,64,-1,66,68,70,72,74,76,78,80,82,-1,-1,-1,84,-1,-1,-1,-1,86,88,90,92,94,-1,-1,96,-1,98,100,102,104,106,108,-1,-1,-1,-1,-1,-1,110,-1,-1,-1,112,-1,114,-1,116,-1,-1,-1,-1,-1,118,120,-1,-1,122,-1,-1,124,126,128,130,132,134,-1,136,138,-1,140,142,-1,144,-1,-1,146,148,-1,150,152,-1,154,-1,156,158,160,162,164,166,168,170,172,174,-1,176,178,180,-1,-1,182,-1,-1,184,186,188,-1,-1,190,-1,192,194,-1,196,-1,-1,-1,-1,-1,-1,-1,-1,-1,-1,-1,-1,-1,-1,-1,-1,-1,-1,-1,-1,-1,-1,-1,-1,-1,-1,-1,-1,-1,-1,-1,-1,-1,-1,-1,-1,-1,-1,-1,-1,-1,-1,-1,-1],"split_conditions":[4.3616E1,3.7838E1,7.8626E1,3.7758E1,4.216E1,4.4822E1,7.925E1,3.1758E1,1.6508914E-3,4.0316E1,4.3014E1,1.4230196E-3,4.8364E1,-1.4960283E-3,8.685E1,3.1652E1,3.2868E1,3.99E1,4.0494E1,-1.4141689E-3,-4.2189052E-4,4.6148E1,6.4624E1,8.3052E1,8.7336E1,2.1652E1,1.8834267E-3,3.2366E1,3.316E1,3.8134E1,4.0106E1,4.0895987E-4,4.0792E1,4.5306E1,4.6626E1,6.1868E1,6.5686E1,8.2292E1,8.3848E1,-1.3046712E-3,8.7856E1,1.7432E1,2.7326E1,3.223E1,3.264E1,3.3024E1,3.3338E1,3.8026E1,3.8322E1,-1.8967337E-3,-5.898103E-4,-7.352391E-4,4.1462E1,-7.407357E-4,5.660874E-4,-7.010121E-4,-3.889918E-4,5.2152E1,6.42E1,6.5092E1,6.7964E1,8.152E1,-1.1248554E-3,1.5361108E-3,8.461E1,3.0214645E-4,9.0184E1,9.75E0,1.8122E1,2.6072E1,2.7594E1,3.1968E1,5.1829056E-4,-1.1225567E-3,-1.8968266E-3,1.9365402E-3,7.936408E-4,-1.1785204E-3,3.4482E1,-5.180182E-4,-1.0009747E-3,6.879652E-4,3.849E1,-0E0,4.1718E1,9.707552E-4,5.7274E1,1.2558608E-3,2.0126107E-3,-7.104416E-4,-1.5039903E-3,1.5183222E-3,7.1118E1,8.116E1,5.4622476E-4,-4.0710924E-4,8.6344E1,-9.996245E-4,-5.3473614E-4,9.378E0,1.0832E1,1.7594E1,2.0552E1,2.4378E1,2.6576E1,-1.5918273E-3,2.9194E1,3.185E1,-5.614981E-4,3.3908E1,3.5628E1,-1.0573446E-3,3.884E1,-7.007939E-4,-1.0390684E-4,5.5728E1,6.0554E1,-8.1969856E-4,7.4554E1,7.9682E1,-8.784363E-4,8.578E1,6.0779456E-4,7.158E0,9.452E0,1.0186E1,1.1178E1,1.7506E1,1.7816E1,1.9484E1,2.1068E1,2.338E1,2.5262E1,1.6631772E-3,2.6908E1,2.8622E1,2.9854E1,-5.6519563E-4,-1.413717E-3,3.355E1,-1.0064439E-3,7.4700965E-4,3.6224E1,3.867E1,3.9146E1,3.83953E-4,-1.04943196E-4,5.9288E1,6.006773E-4,7.3948E1,7.5814E1,1.3689914E-4,8.0802E1,3.897887E-4,-1.0065235E-4,3.0048046E-4,-2.5153285E-4,-1.4069626E-3,-8.7199366E-4,1.4165274E-4,1.1522102E-3,-1.0054306E-3,1.7291021E-4,-8.7519817E-4,-2.738971E-4,-1.5406382E-3,-7.459161E-4,-3.512497E-4,2.129941E-4,-1.0923041E-3,-1.9709562E-4,1.3784364E-4,8.277124E-4,-6.5066916E-4,3.888652E-4,3.8512895E-4,8.720471E-4,6.3150525E-5,-6.589873E-4,1.1720085E-3,2.8183373E-5,-1.0398487E-4,-0E0,-6.013656E-4,1.4398559E-5,-2.4670965E-4,-0E0,-8.7749516E-4,-4.3626624E-4,5.648119E-4,1.3158697E-4,9.911356E-4,2.2286111E-3,-8.1723457E-4,7.2616414E-4,-1.2011601E-4,-0E0],"split_indices":[0,0,0,0,0,0,0,0,0,0,0,0,0,0,0,0,0,0,0,0,0,0,0,0,0,0,0,0,0,0,0,0,0,0,0,0,0,0,0,0,0,0,0,0,0,0,0,0,0,0,0,0,0,0,0,0,0,0,0,0,0,0,0,0,0,0,0,0,0,0,0,0,0,0,0,0,0,0,0,0,0,0,0,0,0,0,0,0,0,0,0,0,0,0,0,0,0,0,0,0,0,0,0,0,0,0,0,0,0,0,0,0,0,0,0,0,0,0,0,0,0,0,0,0,0,0,0,0,0,0,0,0,0,0,0,0,0,0,0,0,0,0,0,0,0,0,0,0,0,0,0,0,0,0,0,0,0,0,0,0,0,0,0,0,0,0,0,0,0,0,0,0,0,0,0,0,0,0,0,0,0,0,0,0,0,0,0,0,0,0,0,0,0,0,0,0,0],"split_type":[0,0,0,0,0,0,0,0,0,0,0,0,0,0,0,0,0,0,0,0,0,0,0,0,0,0,0,0,0,0,0,0,0,0,0,0,0,0,0,0,0,0,0,0,0,0,0,0,0,0,0,0,0,0,0,0,0,0,0,0,0,0,0,0,0,0,0,0,0,0,0,0,0,0,0,0,0,0,0,0,0,0,0,0,0,0,0,0,0,0,0,0,0,0,0,0,0,0,0,0,0,0,0,0,0,0,0,0,0,0,0,0,0,0,0,0,0,0,0,0,0,0,0,0,0,0,0,0,0,0,0,0,0,0,0,0,0,0,0,0,0,0,0,0,0,0,0,0,0,0,0,0,0,0,0,0,0,0,0,0,0,0,0,0,0,0,0,0,0,0,0,0,0,0,0,0,0,0,0,0,0,0,0,0,0,0,0,0,0,0,0,0,0,0,0,0,0],"sum_hessian":[8.09E3,6.349E3,1.741E3,5.655E3,6.94E2,1.139E3,6.02E2,5.626E3,2.9E1,6.31E2,6.3E1,6.5E1,1.074E3,3.1E1,5.71E2,4.643E3,9.83E2,4.72E2,1.59E2,3.3E1,3E1,1.88E2,8.86E2,4.43E2,1.28E2,4.615E3,2.8E1,2.53E2,7.3E2,4.11E2,6.1E1,3.4E1,1.25E2,6.3E1,1.25E2,3.49E2,5.37E2,2.54E2,1.89E2,3.2E1,9.6E1,3.002E3,1.613E3,1.58E2,9.5E1,6.2E1,6.68E2,9.3E1,3.18E2,3.2E1,2.9E1,3E1,9.5E1,3E1,3.3E1,3.2E1,9.3E1,2.54E2,9.5E1,6.3E1,4.74E2,2.21E2,3.3E1,3.1E1,1.58E2,3.1E1,6.5E1,2.277E3,7.25E2,6.93E2,9.2E2,1.3E2,2.8E1,6.3E1,3.2E1,3.2E1,3E1,3.6E1,6.32E2,6.1E1,3.2E1,3.4E1,2.84E2,3.3E1,6.2E1,6.5E1,1.89E2,6.2E1,3.3E1,3.2E1,3.1E1,6.4E1,4.1E2,1.58E2,6.3E1,3.2E1,1.26E2,3.2E1,3.3E1,7.9E2,1.487E3,1.57E2,5.68E2,4.72E2,2.21E2,6.3E1,8.57E2,6.4E1,6.6E1,9.5E1,5.37E2,3E1,2.54E2,3.2E1,3E1,9.3E1,9.6E1,6.3E1,3.47E2,1.27E2,3.1E1,9.5E1,3.1E1,7.26E2,6.4E1,9.5E1,1.392E3,5.8E1,9.9E1,3.75E2,1.93E2,2.86E2,1.86E2,6.7E1,1.54E2,3.2E2,5.37E2,3.1E1,3.3E1,6.3E1,3.2E1,9.3E1,4.44E2,6.4E1,1.9E2,6.3E1,3E1,6.5E1,3.1E1,1.26E2,2.21E2,3.2E1,9.5E1,6.3E1,3.2E1,2.22E2,5.04E2,3.3E1,3.1E1,3.2E1,6.3E1,3.2E1,1.36E3,3.1E1,2.7E1,3.7E1,6.2E1,2.22E2,1.53E2,1.32E2,6.1E1,1.91E2,9.5E1,1.23E2,6.3E1,6.3E1,9.1E1,1.9E2,1.3E2,1.23E2,4.14E2,2.8E1,3.5E1,9.3E1,3.51E2,3.3E1,3.1E1,6.4E1,1.26E2,3.3E1,3.2E1,9.4E1,3.2E1,6.3E1,1.58E2,6.4E1,3.1E1],"tree_param":{"num_deleted":"0","num_feature":"3","num_nodes":"197","size_leaf_vector":"1"}},{"base_weights":[-0E0,9.010475E-3,-3.804383E-2,7.1489443E-3,1.0218142E-1,-6.66118E-2,-2.1321036E-2,9.221357E-3,-5.9908215E-2,1.2608237E-3,7.59054E-4,-4.149583E-2,-1.531069E-1,-3.0400604E-4,-6.489023E-2,7.825993E-3,2.6012936E-3,-9.5453516E-2,7.3435456E-3,-1.0095817E-3,-3.6389634E-2,-1.2080641E-1,-2.4209877E-3,-7.45099E-3,1.3376705E-3,-1.14336565E-1,-3.1324733E-2,5.8845268E-3,5.9558734E-2,-2.568525E-4,-1.16897E-3,2.7247067E-4,-1.0355343E-4,8.020136E-3,-4.471581E-2,-1.5856252E-3,-4.0891327E-4,5.242587E-2,-1.8307362E-2,-6.6452764E-4,-1.5887136E-3,1.6776657E-2,-1.24924E-3,7.967904E-3,-2.7822861E-2,1.473568E-1,2.3215119E-2,-9.75798E-5,2.6934885E-4,-1.1882257E-3,-3.6803447E-2,2.3635208E-4,1.0364334E-3,-3.768801E-2,1.6576272E-2,-7.380714E-3,9.1849494E-4,5.5755745E-3,1.4186195E-1,-9.3044735E-2,-3.6959515E-3,1.728951E-3,1.1136779E-3,3.1787932E-2,-9.981907E-5,1.8690216E-6,-4.6518285E-2,-5.9697665E-2,-2.4476686E-2,7.629027E-4,-1.3329132E-2,8.219002E-3,-4.0441356E-4,7.250586E-3,-5.042278E-2,1.7330688E-3,8.0114923E-4,-9.536425E-5,-1.2786812E-1,-1.943156E-2,2.1362983E-2,-0E0,4.2200983E-2,-1.0588755E-3,-3.7647903E-2,-4.8584666E-2,-8.80461E-4,1.3373083E-4,-3.1448085E-2,-3.576457E-4,7.7520763E-3,1.3714032E-4,-0E0,5.4440796E-3,5.543944E-2,-1.06313415E-1,-1.2571931E-2,-1.702795E-3,-7.4001815E-4,-5.285391E-3,-7.444524E-4,5.2364595E-2,-4.210377E-4,7.371475E-4,2.3729803E-2,-4.6239654E-3,-5.049024E-2,-8.739742E-4,-2.7190933E-2,-5.082177E-2,-2.0649945E-2,2.9889075E-4,-1.09187145E-4,1.0321622E-3,4.7969785E-5,8.5508963E-4,3.9316266E-4,-1.2368876E-3,-7.82289E-4,3.8997637E-4,-1.1221548E-3,-1.7749665E-4,2.712213E-4,7.3418365E-4,2.7448736E-4,-0E0,4.0781882E-4,-2.4908953E-4,1.3385537E-4,-8.790627E-4,-3.9960528E-4,-4.0326914E-4,-1.02006765E-4,-2.6092384E-4,-7.023142E-4,-7.471197E-5,-5.641588E-4],"categories":[],"categories_nodes":[],"categories_segments":[],"categories_sizes":[],"default_left":[0,0,0,0,0,0,0,0,0,0,0,0,0,0,0,0,0,0,0,0,0,0,0,0,0,0,0,0,0,0,0,0,0,0,0,0,0,0,0,0,0,0,0,0,0,0,0,0,0,0,0,0,0,0,0,0,0,0,0,0,0,0,0,0,0,0,0,0,0,0,0,0,0,0,0,0,0,0,0,0,0,0,0,0,0,0,0,0,0,0,0,0,0,0,0,0,0,0,0,0,0,0,0,0,0,0,0,0,0,0,0,0,0,0,0,0,0,0,0,0,0,0,0,0,0,0,0,0,0,0,0,0,0,0,0,0,0],"id":4,"left_children":[1,3,5,7,9,11,13,15,17,-1,-1,19,21,23,25,27,-1,29,31,-1,33,35,-1,37,-1,39,41,43,45,-1,-1,-1,-1,47,49,-1,-1,51,53,-1,-1,55,-1,57,59,61,63,-1,-1,-1,65,-1,-1,67,69,71,-1,73,75,77,79,-1,-1,81,-1,-1,83,85,87,-1,89,91,-1,93,95,-1,-1,-1,97,99,101,-1,103,-1,105,107,-1,-1,109,-1,111,-1,-1,113,115,117,119,-1,-1,121,-1,123,-1,-1,125,127,129,-1,131,133,135,-1,-1,-1,-1,-1,-1,-1,-1,-1,-1,-1,-1,-1,-1,-1,-1,-1,-1,-1,-1,-1,-1,-1,-1,-1,-1],"loss_changes":[2.7758687E0,1.1228116E0,7.3075557E-1,8.869769E-1,4.99897E-2,1.2124591E0,8.926735E-1,2.150591E0,4.660945E-1,0E0,0E0,1.1740154E-1,2.9952145E-1,6.2557054E-1,5.096339E-1,6.1501336E-1,0E0,1.7124462E-1,2.522116E-2,0E0,1.5637076E-1,2.632301E-1,0E0,4.0902665E-1,0E0,2.3773706E-1,8.7734354E-1,4.1755098E-1,6.879014E-1,0E0,0E0,0E0,0E0,2.3501711E-2,1.8470389E-1,0E0,0E0,1.2638268E-1,3.664602E-1,0E0,0E0,2.3944724E-1,0E0,1.7868987E0,5.328748E-1,1.1141062E-2,4.774802E-2,0E0,0E0,0E0,1.1891684E-1,0E0,0E0,9.1311574E-2,3.483953E-1,5.3065334E-2,0E0,5.147508E-1,1.5105307E-1,2.5258E-1,1.0037864E-1,0E0,0E0,4.061763E-2,0E0,0E0,1.154235E-1,2.2068828E-2,6.0806274E-2,0E0,6.3145205E-2,1.8831366E-3,0E0,4.6126106E-1,3.2314062E-1,0E0,0E0,0E0,1.0918176E-1,1.15372494E-1,1.921177E-1,0E0,4.4387594E-2,0E0,8.925456E-2,6.587835E-2,0E0,0E0,3.1551316E-2,0E0,2.8675567E-2,0E0,0E0,3.164976E-1,7.724029E-2,8.74877E-4,5.1013964E-1,0E0,0E0,5.165194E-2,0E0,2.2519857E-2,0E0,0E0,2.217203E-2,2.5597047E-2,4.6343356E-2,0E0,9.042822E-3,1.9254401E-2,5.3051274E-2,0E0,0E0,0E0,0E0,0E0,0E0,0E0,0E0,0E0,0E0,0E0,0E0,0E0,0E0,0E0,0E0,0E0,0E0,0E0,0E0,0E0,0E0,0E0,0E0,0E0,0E0],"parents":[2147483647,0,0,1,1,2,2,3,3,4,4,5,5,6,6,7,7,8,8,11,11,12,12,13,13,14,14,15,15,17,17,18,18,20,20,21,21,23,23,25,25,26,26,27,27,28,28,33,33,34,34,37,37,38,38,41,41,43,43,44,44,45,45,46,46,50,50,53,53,54,54,55,55,57,57,58,58,59,59,60,60,63,63,66,66,67,67,68,68,70,70,71,71,73,73,74,74,78,78,79,79,80,80,82,82,84,84,85,85,88,88,90,90,93,93,94,94,95,95,96,96,99,99,101,101,104,104,105,105,106,106,108,108,109,109,110,110],"right_children":[2,4,6,8,10,12,14,16,18,-1,-1,20,22,24,26,28,-1,30,32,-1,34,36,-1,38,-1,40,42,44,46,-1,-1,-1,-1,48,50,-1,-1,52,54,-1,-1,56,-1,58,60,62,64,-1,-1,-1,66,-1,-1,68,70,72,-1,74,76,78,80,-1,-1,82,-1,-1,84,86,88,-1,90,92,-1,94,96,-1,-1,-1,98,100,102,-1,104,-1,106,108,-1,-1,110,-1,112,-1,-1,114,116,118,120,-1,-1,122,-1,124,-1,-1,126,128,130,-1,132,134,136,-1,-1,-1,-1,-1,-1,-1,-1,-1,-1,-1,-1,-1,-1,-1,-1,-1,-1,-1,-1,-1,-1,-1,-1,-1,-1],"split_conditions":[6.6448784E1,6.569766E1,7.075455E1,6.448368E1,6.607994E1,6.97128E1,7.857139E1,6.432426E1,6.527779E1,1.2608237E-3,7.59054E-4,6.66668E1,7.046951E1,7.804612E1,8.083944E1,6.2935726E1,2.6012936E-3,6.465121E1,6.547611E1,-1.0095817E-3,6.708065E1,7.018086E1,-2.4209877E-3,7.151711E1,1.3376705E-3,7.9496506E1,8.537315E1,6.113678E1,6.3366516E1,-2.568525E-4,-1.16897E-3,2.7247067E-4,-1.0355343E-4,6.690043E1,6.7323944E1,-1.5856252E-3,-4.0891327E-4,7.118654E1,7.53521E1,-6.6452764E-4,-1.5887136E-3,8.3848755E1,-1.24924E-3,6.0579716E1,6.1580517E1,6.315787E1,6.4165054E1,-9.75798E-5,2.6934885E-4,-1.1882257E-3,6.7741905E1,2.3635208E-4,1.0364334E-3,7.259227E1,7.628176E1,8.278691E1,9.1849494E-4,5.963541E1,6.0975624E1,6.129042E1,6.2374374E1,1.728951E-3,1.1136779E-3,6.355155E1,-9.981907E-5,1.8690216E-6,6.797778E1,7.226902E1,7.291058E1,7.629027E-4,7.704482E1,8.184934E1,-4.0441356E-4,5.8545322E1,6.009612E1,1.7330688E-3,8.0114923E-4,-9.536425E-5,6.14093E1,6.220075E1,6.2755665E1,-0E0,6.375254E1,-1.0588755E-3,6.84655E1,7.1774055E1,-8.80461E-4,1.3373083E-4,7.3637955E1,-3.576457E-4,7.74193E1,1.3714032E-4,-0E0,1.2235588E1,5.8928745E1,5.988344E1,6.0408005E1,-1.702795E-3,-7.4001815E-4,6.2027187E1,-7.444524E-4,6.2547295E1,-4.210377E-4,7.371475E-4,6.3917675E1,6.819657E1,6.871657E1,-8.739742E-4,7.204957E1,7.322849E1,7.499976E1,2.9889075E-4,-1.09187145E-4,1.0321622E-3,4.7969785E-5,8.5508963E-4,3.9316266E-4,-1.2368876E-3,-7.82289E-4,3.8997637E-4,-1.1221548E-3,-1.7749665E-4,2.712213E-4,7.3418365E-4,2.7448736E-4,-0E0,4.0781882E-4,-2.4908953E-4,1.3385537E-4,-8.790627E-4,-3.9960528E-4,-4.0326914E-4,-1.02006765E-4,-2.6092384E-4,-7.023142E-4,-7.471197E-5,-5.641588E-4],"split_indices":[2,2,2,2,2,2,2,2,2,0,0,2,2,2,2,2,0,2,2,0,2,2,0,2,0,2,2,2,2,0,0,0,0,2,2,0,0,2,2,0,0,2,0,2,2,2,2,0,0,0,2,0,0,2,2,2,0,2,2,2,2,0,0,2,0,0,2,2,2,0,2,2,0,2,2,0,0,0,2,2,2,0,2,0,2,2,0,0,2,0,2,0,0,2,2,2,2,0,0,2,0,2,0,0,2,2,2,0,2,2,2,0,0,0,0,0,0,0,0,0,0,0,0,0,0,0,0,0,0,0,0,0,0,0,0,0,0],"split_type":[0,0,0,0,0,0,0,0,0,0,0,0,0,0,0,0,0,0,0,0,0,0,0,0,0,0,0,0,0,0,0,0,0,0,0,0,0,0,0,0,0,0,0,0,0,0,0,0,0,0,0,0,0,0,0,0,0,0,0,0,0,0,0,0,0,0,0,0,0,0,0,0,0,0,0,0,0,0,0,0,0,0,0,0,0,0,0,0,0,0,0,0,0,0,0,0,0,0,0,0,0,0,0,0,0,0,0,0,0,0,0,0,0,0,0,0,0,0,0,0,0,0,0,0,0,0,0,0,0,0,0,0,0,0,0,0,0],"sum_hessian":[8.09E3,6.54E3,1.55E3,6.414E3,1.26E2,5.69E2,9.81E2,6.224E3,1.9E2,6.2E1,6.4E1,4.43E2,1.26E2,6.64E2,3.17E2,6.191E3,3.3E1,1.25E2,6.5E1,3.2E1,4.11E2,9.5E1,3.1E1,6.32E2,3.2E1,1.26E2,1.91E2,5.97E3,2.21E2,3.1E1,9.4E1,3.3E1,3.2E1,6.3E1,3.48E2,6.3E1,3.2E1,9.5E1,5.37E2,6.3E1,6.3E1,1.26E2,6.5E1,5.626E3,3.44E2,6.3E1,1.58E2,3E1,3.3E1,3.1E1,3.17E2,6.3E1,3.2E1,3.47E2,1.9E2,9.5E1,3.1E1,5.529E3,9.7E1,9.1E1,2.53E2,3.3E1,3E1,1.28E2,3E1,6.4E1,2.53E2,1.26E2,2.21E2,6.4E1,1.26E2,6.3E1,3.2E1,5.371E3,1.58E2,6.2E1,3.5E1,2.8E1,6.3E1,1.58E2,9.5E1,3.3E1,9.5E1,3E1,2.23E2,9.5E1,3.1E1,3.2E1,1.89E2,6.3E1,6.3E1,3.2E1,3.1E1,5.18E3,1.91E2,6.2E1,9.6E1,3.3E1,3E1,1.28E2,3E1,6.5E1,3E1,3.2E1,6.3E1,6.5E1,1.58E2,3.1E1,6.4E1,6.3E1,1.26E2,3.1E1,3.2E1,3.2E1,5.148E3,6.3E1,1.28E2,3.4E1,2.8E1,6.3E1,3.3E1,9.5E1,3.3E1,3.2E1,3.3E1,2.9E1,3.4E1,3.3E1,3.2E1,3.1E1,1.27E2,3.2E1,3.2E1,3.1E1,3.2E1,9.5E1,3.1E1],"tree_param":{"num_deleted":"0","num_feature":"3","num_nodes":"137","size_leaf_vector":"1"}},{"base_weights":[-0E0,-5.76752E-3,2.552299E-2,-4.4745862E-4,-3.306191E-2,6.54926E-2,-1.5651714E-3,-7.971181E-3,8.667759E-3,-5.1840935E-2,-2.519296E-3,4.6480417E-2,2.233221E-3,1.2251631E-2,-6.504684E-2,2.5616325E-3,-5.0816376E-2,5.054672E-2,-3.6789058E-3,-2.4627432E-2,-8.115085E-2,5.661325E-3,-1.0647019E-3,6.39831E-2,-9.574955E-3,-0E0,1.3715212E-1,-8.1604614E-4,-5.242061E-2,-1.9422218E-2,1.3831859E-2,-1.3687469E-1,-3.4393582E-2,3.3882543E-2,1.053688E-1,-1.52174365E-2,1.9701218E-2,-5.4460706E-4,-1.2932618E-2,-9.6314065E-2,-6.984289E-2,-2.7731487E-3,3.185958E-2,4.4146508E-2,1.2711933E-3,1.0626009E-2,-7.108155E-4,-1.1883085E-3,6.0140393E-3,1.6369295E-3,1.0342486E-3,-2.470118E-4,-6.355093E-4,-8.709107E-3,-9.9419326E-2,2.216074E-3,9.425776E-3,-2.1422224E-3,-9.986046E-2,9.2478696E-4,-4.3060638E-2,5.736757E-2,1.0111806E-2,7.82097E-4,1.3101646E-3,-4.0161377E-3,-1.19977936E-1,4.101973E-2,-6.53135E-3,1.4621322E-3,-3.836057E-2,-6.830508E-2,-1.6962433E-3,4.8529072E-4,-9.3111366E-2,1.4865122E-2,-6.602626E-2,1.0354413E-3,-4.038071E-3,5.377742E-2,-4.3215355E-4,-4.3189477E-2,1.2273164E-3,9.029944E-4,-3.4491683E-3,2.0760873E-2,-2.1877281E-2,-1.5888908E-3,-6.56393E-2,2.5697079E-2,-9.511285E-3,-2.3315322E-4,-1.797281E-3,-7.5678945E-2,-3.1071013E-2,3.6801487E-2,1.8739359E-3,-1.942303E-2,2.2565376E-2,6.717125E-3,-3.710514E-2,-2.0993717E-3,-8.665887E-2,2.8173793E-2,1.537051E-3,-1.7972665E-3,1.2798828E-2,-1.2613842E-2,5.693821E-4,-1.0551033E-3,-3.6730184E-3,-7.861064E-4,-4.0934994E-4,-1.2936824E-3,-8.216973E-2,-5.9538575E-6,5.1980815E-4,-8.730905E-4,-4.0357307E-4,-5.636879E-4,4.379893E-4,3.9027464E-2,8.1675485E-2,-1.12580856E-4,-7.078179E-4,-4.4453576E-2,4.548448E-3,4.132478E-2,4.3944987E-3,-1.0626226E-1,-2.123762E-3,-2.4967513E-4,-1.0005924E-3,1.2770261E-3,6.674531E-2,-8.7799085E-4,6.67046E-3,-4.2558778E-2,-1.804023E-3,6.501863E-4,-5.423952E-2,5.351737E-4,-4.182359E-4,2.5243542E-4,-7.76497E-4,1.0805486E-3,-1.6296806E-3,4.290626E-4,1.8820983E-3,-1.0640577E-3,-1.5260328E-2,-1.01491525E-4,-1.2498939E-3,8.0723304E-4,2.1036139E-2,-2.490026E-2,5.1179174E-2,3.0194895E-4,-2.7793694E-2,-2.4602935E-4,1.6175053E-4,-6.523604E-2,-9.625701E-4,2.7543085E-4,-8.233425E-3,5.95244E-2,-5.5032544E-4,6.864447E-4,1.0144243E-3,-5.1397733E-2,-2.6051086E-4,1.209012E-3,-1.3620596E-2,1.4529552E-2,9.133618E-4,-4.1070188E-4,2.1018876E-2,-2.567508E-4,-1.43333E-3,7.407239E-4,-8.998366E-3,1.6860003E-2,-2.4253065E-3,5.5415746E-2,1.0995633E-3,3.7951544E-2,-4.3669418E-3,-1.9208085E-2,-7.8813895E-4,-7.028353E-2,-2.237619E-2,-2.791672E-2,2.1888118E-2,-2.2153795E-2,1.1716911E-2,-3.2090507E-2,2.1856412E-2,-7.738528E-4,3.2538824E-2,-2.805619E-3,-8.7971496E-4,1.0302608E-1,-4.061501E-3,-1.933427E-2,-4.0327312E-4,-8.2724035E-4,-4.0725467E-4,-3.8813506E-4,1.525895E-3,6.9035694E-2,1.4799187E-4,-2.6343347E-4,-7.110508E-4,-3.6673345E-2,5.720138E-3,4.287223E-4,-1.12231144E-4,7.6173295E-5,4.3342516E-4,-2.8282608E-4,9.908416E-5,1.1597285E-4,9.149104E-4,7.6901464E-4,-8.356207E-4,5.847933E-4,2.1852468E-4,-2.025797E-4,2.3715397E-4,-5.355614E-4,1.8276118E-4,-4.6407463E-4,-1.9035469E-3,8.63826E-5,-7.9669215E-4,-1.0102429E-4,-4.3777234E-4,5.139681E-4,-1.20498524E-4,1.640273E-4,-2.68624E-4,2.1763088E-3,-1.8976241E-5,-1.7834542E-4,-5.051954E-4,7.4625836E-4,-2.4344905E-4,1.3485433E-3,1.5193838E-4,2.4810043E-4,-2.0408172E-4,1.2263517E-3,7.995615E-4,-7.8421633E-4,5.65416E-4,-3.9977313E-4,-0E0,1.59834E-4,-3.938302E-5,4.5434173E-4,1.3328756E-3,-1.9368724E-4,-1.1838464E-3,2.9077902E-4,-5.0836185E-4],"categories":[],"categories_nodes":[],"categories_segments":[],"categories_sizes":[],"default_left":[0,0,0,0,0,0,0,0,0,0,0,0,0,0,0,0,0,0,0,0,0,0,0,0,0,0,0,0,0,0,0,0,0,0,0,0,0,0,0,0,0,0,0,0,0,0,0,0,0,0,0,0,0,0,0,0,0,0,0,0,0,0,0,0,0,0,0,0,0,0,0,0,0,0,0,0,0,0,0,0,0,0,0,0,0,0,0,0,0,0,0,0,0,0,0,0,0,0,0,0,0,0,0,0,0,0,0,0,0,0,0,0,0,0,0,0,0,0,0,0,0,0,0,0,0,0,0,0,0,0,0,0,0,0,0,0,0,0,0,0,0,0,0,0,0,0,0,0,0,0,0,0,0,0,0,0,0,0,0,0,0,0,0,0,0,0,0,0,0,0,0,0,0,0,0,0,0,0,0,0,0,0,0,0,0,0,0,0,0,0,0,0,0,0,0,0,0,0,0,0,0,0,0,0,0,0,0,0,0,0,0,0,0,0,0,0,0,0,0,0,0,0,0,0,0,0,0,0,0,0,0,0,0,0,0,0,0,0,0,0,0,0,0,0,0,0,0,0,0,0,0,0,0,0,0,0,0,0,0,0,0,0,0,0,0],"id":5,"left_children":[1,3,5,7,9,11,13,15,17,19,21,23,-1,25,27,29,31,33,35,37,39,41,-1,43,45,47,49,-1,51,53,55,57,59,61,63,65,67,-1,69,71,73,75,77,79,-1,81,-1,-1,83,-1,-1,-1,-1,85,87,-1,89,-1,91,-1,93,95,97,-1,-1,99,101,103,105,107,109,111,-1,-1,113,115,117,-1,119,121,-1,123,-1,-1,125,127,129,-1,131,133,135,-1,-1,137,139,141,-1,143,145,147,149,-1,151,153,-1,-1,155,157,-1,-1,159,-1,-1,-1,161,163,-1,-1,-1,-1,-1,165,167,-1,-1,169,171,173,175,177,179,-1,-1,181,183,-1,185,187,-1,-1,189,-1,-1,-1,-1,-1,191,193,-1,-1,195,-1,-1,-1,197,199,201,-1,203,-1,-1,205,-1,-1,207,209,-1,-1,-1,211,-1,-1,213,215,-1,-1,217,-1,-1,-1,219,221,-1,223,-1,225,227,229,-1,231,233,235,237,239,241,243,245,-1,247,249,-1,251,253,255,-1,-1,-1,-1,257,259,-1,-1,-1,261,263,-1,-1,-1,-1,-1,-1,-1,-1,-1,-1,-1,-1,-1,-1,-1,-1,-1,-1,-1,-1,-1,-1,-1,-1,-1,-1,-1,-1,-1,-1,-1,-1,-1,-1,-1,-1,-1,-1,-1,-1,-1,-1,-1,-1,-1,-1,-1,-1,-1,-1],"loss_changes":[1.189613E0,9.5544153E-1,1.6186405E0,3.7924886E-1,6.104373E-1,1.772052E0,7.8407633E-1,1.3750429E0,1.2949512E0,5.1624954E-1,3.610414E-1,5.358578E-1,0E0,1.1134212E0,1.576966E-2,6.032602E-1,8.275696E-1,5.032368E-1,5.194329E-1,1.13622785E-1,3.1012058E-2,8.740696E-2,0E0,4.94506E-1,1.6583991E-1,4.7475943E-1,1.4542937E-2,0E0,1.9532055E-2,6.93647E-1,1.4523867E0,2.1918058E-1,5.565424E-1,2.383048E-1,6.0080886E-2,1.5043943E0,3.5827446E-1,0E0,9.635127E-2,2.2950244E-1,5.2954626E-1,3.2629648E-1,2.574062E-1,2.7009588E-1,0E0,5.9242475E-1,0E0,0E0,5.1388377E-1,0E0,0E0,0E0,0E0,2.8307778E-1,1.5997118E-1,0E0,4.893257E-1,0E0,3.8510835E-1,0E0,1.7312819E-1,5.563177E-1,8.2407266E-2,0E0,0E0,4.1881698E-1,3.2381976E-1,4.8701906E-1,9.6644765E-1,1.3009141E-1,2.0764466E-1,1.19057E-2,0E0,0E0,3.1292915E-2,1.2883465E-1,1.867348E-2,0E0,1.6393994E-1,1.0284126E-1,0E0,4.826811E-2,0E0,0E0,1.9078916E-1,7.029859E-2,8.323872E-1,0E0,7.459402E-2,8.491623E-1,9.3222E-1,0E0,0E0,4.0358317E-1,7.8608996E-1,2.544367E-1,0E0,1.7365107E-1,3.396979E-1,9.876268E-1,4.2371494E-1,0E0,2.5795478E-1,1.0740152E-1,0E0,0E0,3.728628E-1,8.3127566E-2,0E0,0E0,2.7827527E-2,0E0,0E0,0E0,7.867098E-3,3.4334578E-2,0E0,0E0,0E0,0E0,0E0,3.738899E-1,7.558465E-4,0E0,0E0,3.0561835E-3,1.0165335E0,1.1673275E-1,9.5603354E-2,2.632246E-1,2.099723E-1,0E0,0E0,2.0255182E0,1.3256061E-1,0E0,2.1206237E-1,7.080239E-2,0E0,0E0,1.3485783E-1,0E0,0E0,0E0,0E0,0E0,7.787236E-2,2.1691062E-1,0E0,0E0,1.4040408E-1,0E0,0E0,0E0,3.184207E-1,1.6904813E-1,3.7691438E-1,0E0,3.4327507E-3,0E0,0E0,1.1719078E-2,0E0,0E0,4.139153E-2,5.8232546E-2,0E0,0E0,0E0,1.9982353E-2,0E0,0E0,1.8655236E-1,5.108955E-2,0E0,0E0,2.3294304E-2,0E0,0E0,0E0,1.4066677E-1,1.877605E-1,0E0,7.671998E-1,0E0,4.3565407E-2,1.9871916E-1,8.4332384E-2,0E0,5.0358665E-1,1.8370555E-1,1.140495E-2,6.86478E-2,5.268295E-2,1.6283475E0,3.298576E-2,1.7263001E-1,0E0,4.3548477E-1,4.7218442E-2,0E0,2.4485588E-4,2.8602228E-1,2.8816024E-2,0E0,0E0,0E0,0E0,8.693331E-3,1.7169309E-1,0E0,0E0,0E0,2.525885E-1,2.925709E-1,0E0,0E0,0E0,0E0,0E0,0E0,0E0,0E0,0E0,0E0,0E0,0E0,0E0,0E0,0E0,0E0,0E0,0E0,0E0,0E0,0E0,0E0,0E0,0E0,0E0,0E0,0E0,0E0,0E0,0E0,0E0,0E0,0E0,0E0,0E0,0E0,0E0,0E0,0E0,0E0,0E0,0E0,0E0,0E0,0E0,0E0,0E0,0E0,0E0,0E0],"parents":[2147483647,0,0,1,1,2,2,3,3,4,4,5,5,6,6,7,7,8,8,9,9,10,10,11,11,13,13,14,14,15,15,16,16,17,17,18,18,19,19,20,20,21,21,23,23,24,24,25,25,26,26,28,28,29,29,30,30,31,31,32,32,33,33,34,34,35,35,36,36,38,38,39,39,40,40,41,41,42,42,43,43,45,45,48,48,53,53,54,54,56,56,58,58,60,60,61,61,62,62,65,65,66,66,67,67,68,68,69,69,70,70,71,71,74,74,75,75,76,76,78,78,79,79,81,81,84,84,85,85,86,86,88,88,89,89,90,90,93,93,94,94,95,95,97,97,98,98,99,99,100,100,102,102,103,103,106,106,107,107,110,110,114,114,115,115,121,121,122,122,125,125,126,126,127,127,128,128,129,129,130,130,133,133,134,134,136,136,137,137,140,140,146,146,147,147,150,150,154,154,155,155,156,156,158,158,161,161,164,164,165,165,169,169,172,172,173,173,176,176,180,180,181,181,183,183,185,185,186,186,187,187,189,189,190,190,191,191,192,192,193,193,194,194,195,195,196,196,198,198,199,199,201,201,202,202,203,203,208,208,209,209,213,213,214,214],"right_children":[2,4,6,8,10,12,14,16,18,20,22,24,-1,26,28,30,32,34,36,38,40,42,-1,44,46,48,50,-1,52,54,56,58,60,62,64,66,68,-1,70,72,74,76,78,80,-1,82,-1,-1,84,-1,-1,-1,-1,86,88,-1,90,-1,92,-1,94,96,98,-1,-1,100,102,104,106,108,110,112,-1,-1,114,116,118,-1,120,122,-1,124,-1,-1,126,128,130,-1,132,134,136,-1,-1,138,140,142,-1,144,146,148,150,-1,152,154,-1,-1,156,158,-1,-1,160,-1,-1,-1,162,164,-1,-1,-1,-1,-1,166,168,-1,-1,170,172,174,176,178,180,-1,-1,182,184,-1,186,188,-1,-1,190,-1,-1,-1,-1,-1,192,194,-1,-1,196,-1,-1,-1,198,200,202,-1,204,-1,-1,206,-1,-1,208,210,-1,-1,-1,212,-1,-1,214,216,-1,-1,218,-1,-1,-1,220,222,-1,224,-1,226,228,230,-1,232,234,236,238,240,242,244,246,-1,248,250,-1,252,254,256,-1,-1,-1,-1,258,260,-1,-1,-1,262,264,-1,-1,-1,-1,-1,-1,-1,-1,-1,-1,-1,-1,-1,-1,-1,-1,-1,-1,-1,-1,-1,-1,-1,-1,-1,-1,-1,-1,-1,-1,-1,-1,-1,-1,-1,-1,-1,-1,-1,-1,-1,-1,-1,-1,-1,-1,-1,-1,-1,-1],"split_conditions":[4.80195E1,3.7368E1,7.3145E1,2.1838E1,4.0721E1,7.08675E1,8.6046E1,1.79835E1,2.7024E1,3.86845E1,4.7585E1,6.5955E1,2.233221E-3,8.52725E1,8.70055E1,1.005E1,1.85155E1,2.63535E1,3.28805E1,3.7728E1,3.95105E1,4.5911E1,-1.0647019E-3,6.4457E1,6.8988E1,7.3812E1,8.56865E1,-8.1604614E-4,8.74015E1,9.338E0,1.0531E1,1.81065E1,1.87115E1,2.4049E1,2.67995E1,3.20765E1,3.61815E1,-5.4460706E-4,3.8282E1,3.9259E1,3.96345E1,4.4777E1,4.6642E1,6.3256E1,1.2711933E-3,6.76045E1,-7.108155E-4,-1.1883085E-3,7.5404E1,1.6369295E-3,1.0342486E-3,-2.470118E-4,-6.355093E-4,7.167E0,9.3835E0,2.216074E-3,1.5543E1,-2.1422224E-3,1.8282E1,9.2478696E-4,1.985E1,2.37415E1,2.4555E1,7.82097E-4,1.3101646E-3,3.1026E1,3.22055E1,3.58605E1,3.6336E1,3.81065E1,3.84575E1,3.90925E1,-1.6962433E-3,4.8529072E-4,3.9799E1,4.39385E1,4.52995E1,1.0354413E-3,4.7063E1,5.94045E1,-4.3215355E-4,6.67505E1,1.2273164E-3,9.029944E-4,7.78015E1,6.414E0,7.5805E0,-1.5888908E-3,9.6315E0,1.39865E1,1.60015E1,-2.3315322E-4,-1.797281E-3,1.9358E1,2.0252E1,2.32625E1,1.8739359E-3,2.44275E1,2.468E1,3.09465E1,3.1287E1,-2.0993717E-3,3.2374E1,3.31535E1,1.537051E-3,-1.7972665E-3,3.6944E1,3.77935E1,5.693821E-4,-1.0551033E-3,3.8576E1,-7.861064E-4,-4.0934994E-4,-1.2936824E-3,4.0204E1,4.1246E1,5.1980815E-4,-8.730905E-4,-4.0357307E-4,-5.636879E-4,4.379893E-4,5.7406E1,6.17025E1,-1.12580856E-4,-7.078179E-4,7.68905E1,7.84945E1,6.3065E0,6.4995E0,7.307E0,7.8605E0,-2.4967513E-4,-1.0005924E-3,1.37715E1,1.52375E1,-8.7799085E-4,1.65485E1,1.90135E1,-1.804023E-3,6.501863E-4,2.0965E1,5.351737E-4,-4.182359E-4,2.5243542E-4,-7.76497E-4,1.0805486E-3,2.5013E1,2.8374E1,1.8820983E-3,-1.0640577E-3,3.1881E1,-1.01491525E-4,-1.2498939E-3,8.0723304E-4,3.3301E1,3.6812E1,3.7198E1,3.0194895E-4,3.7997E1,-2.4602935E-4,1.6175053E-4,4.00155E1,-9.625701E-4,2.7543085E-4,4.19095E1,5.56375E1,-5.5032544E-4,6.864447E-4,1.0144243E-3,7.6049E1,-2.6051086E-4,1.209012E-3,8.0802E1,6.262E0,9.133618E-4,-4.1070188E-4,7.0805E0,-2.567508E-4,-1.43333E-3,7.407239E-4,8.9255E0,1.35705E1,-2.4253065E-3,1.51455E1,1.0995633E-3,1.6186E1,1.73835E1,1.8855E1,-7.8813895E-4,2.0858E1,2.1565E1,2.4818E1,2.57105E1,2.70845E1,2.8475E1,3.171E1,3.19445E1,-7.738528E-4,3.35395E1,3.65375E1,-8.7971496E-4,3.7069E1,3.72825E1,3.7905E1,-4.0327312E-4,-8.2724035E-4,-4.0725467E-4,-3.8813506E-4,4.2273E1,5.40495E1,1.4799187E-4,-2.6343347E-4,-7.110508E-4,8.0343E1,8.38295E1,4.287223E-4,-1.12231144E-4,7.6173295E-5,4.3342516E-4,-2.8282608E-4,9.908416E-5,1.1597285E-4,9.149104E-4,7.6901464E-4,-8.356207E-4,5.847933E-4,2.1852468E-4,-2.025797E-4,2.3715397E-4,-5.355614E-4,1.8276118E-4,-4.6407463E-4,-1.9035469E-3,8.63826E-5,-7.9669215E-4,-1.0102429E-4,-4.3777234E-4,5.139681E-4,-1.20498524E-4,1.640273E-4,-2.68624E-4,2.1763088E-3,-1.8976241E-5,-1.7834542E-4,-5.051954E-4,7.4625836E-4,-2.4344905E-4,1.3485433E-3,1.5193838E-4,2.4810043E-4,-2.0408172E-4,1.2263517E-3,7.995615E-4,-7.8421633E-4,5.65416E-4,-3.9977313E-4,-0E0,1.59834E-4,-3.938302E-5,4.5434173E-4,1.3328756E-3,-1.9368724E-4,-1.1838464E-3,2.9077902E-4,-5.0836185E-4],"split_indices":[1,1,1,1,1,1,1,1,1,1,1,1,0,1,1,1,1,1,1,1,1,1,0,1,1,1,1,0,1,1,1,1,1,1,1,1,1,0,1,1,1,1,1,1,0,1,0,0,1,0,0,0,0,1,1,0,1,0,1,0,1,1,1,0,0,1,1,1,1,1,1,1,0,0,1,1,1,0,1,1,0,1,0,0,1,1,1,0,1,1,1,0,0,1,1,1,0,1,1,1,1,0,1,1,0,0,1,1,0,0,1,0,0,0,1,1,0,0,0,0,0,1,1,0,0,1,1,1,1,1,1,0,0,1,1,0,1,1,0,0,1,0,0,0,0,0,1,1,0,0,1,0,0,0,1,1,1,0,1,0,0,1,0,0,1,1,0,0,0,1,0,0,1,1,0,0,1,0,0,0,1,1,0,1,0,1,1,1,0,1,1,1,1,1,1,1,1,0,1,1,0,1,1,1,0,0,0,0,1,1,0,0,0,1,1,0,0,0,0,0,0,0,0,0,0,0,0,0,0,0,0,0,0,0,0,0,0,0,0,0,0,0,0,0,0,0,0,0,0,0,0,0,0,0,0,0,0,0,0,0,0,0,0,0,0],"split_type":[0,0,0,0,0,0,0,0,0,0,0,0,0,0,0,0,0,0,0,0,0,0,0,0,0,0,0,0,0,0,0,0,0,0,0,0,0,0,0,0,0,0,0,0,0,0,0,0,0,0,0,0,0,0,0,0,0,0,0,0,0,0,0,0,0,0,0,0,0,0,0,0,0,0,0,0,0,0,0,0,0,0,0,0,0,0,0,0,0,0,0,0,0,0,0,0,0,0,0,0,0,0,0,0,0,0,0,0,0,0,0,0,0,0,0,0,0,0,0,0,0,0,0,0,0,0,0,0,0,0,0,0,0,0,0,0,0,0,0,0,0,0,0,0,0,0,0,0,0,0,0,0,0,0,0,0,0,0,0,0,0,0,0,0,0,0,0,0,0,0,0,0,0,0,0,0,0,0,0,0,0,0,0,0,0,0,0,0,0,0,0,0,0,0,0,0,0,0,0,0,0,0,0,0,0,0,0,0,0,0,0,0,0,0,0,0,0,0,0,0,0,0,0,0,0,0,0,0,0,0,0,0,0,0,0,0,0,0,0,0,0,0,0,0,0,0,0,0,0,0,0,0,0,0,0,0,0,0,0,0,0,0,0,0,0],"sum_hessian":[8.09E3,6.602E3,1.488E3,5.529E3,1.073E3,6.02E2,8.86E2,3.035E3,2.494E3,6.62E2,4.11E2,5.39E2,6.3E1,7.27E2,1.59E2,2.435E3,6E2,5.69E2,1.925E3,3.46E2,3.16E2,3.81E2,3E1,4.12E2,1.27E2,6.63E2,6.4E1,6.3E1,9.6E1,8.22E2,1.613E3,9.4E1,5.06E2,4.39E2,1.3E2,1.292E3,6.33E2,9.4E1,2.52E2,1.28E2,1.88E2,2.86E2,9.5E1,3.16E2,9.6E1,9.5E1,3.2E1,3.1E1,6.32E2,3.2E1,3.2E1,3.1E1,6.5E1,7.27E2,9.5E1,3.2E1,1.581E3,2.8E1,6.6E1,3.1E1,4.75E2,2.18E2,2.21E2,6.7E1,6.3E1,1.169E3,1.23E2,3.51E2,2.82E2,1.59E2,9.3E1,9.5E1,3.3E1,3E1,1.58E2,2.23E2,6.3E1,3.2E1,6.3E1,2.86E2,3E1,6.4E1,3.1E1,6.4E1,5.68E2,2.22E2,5.05E2,3.2E1,6.3E1,8.53E2,7.28E2,3.5E1,3.1E1,1.24E2,3.51E2,1.9E2,2.8E1,6.3E1,1.58E2,8.81E2,2.88E2,3.1E1,9.2E1,3.17E2,3.4E1,2.8E1,2.54E2,1.26E2,3.3E1,3E1,6.3E1,6.5E1,3E1,3.2E1,1.26E2,1.58E2,6.5E1,3.1E1,3.2E1,3.1E1,3.2E1,1.91E2,9.5E1,3.2E1,3.2E1,9.4E1,4.74E2,9.5E1,1.27E2,9.4E1,4.11E2,3.1E1,3.2E1,5.37E2,3.16E2,1.25E2,6.03E2,9.6E1,2.8E1,6.7E1,2.84E2,1.58E2,3.2E1,3.5E1,2.8E1,3.5E1,1.23E2,8.53E2,2.8E1,6.7E1,2.21E2,3.2E1,6E1,3.5E1,2.82E2,1.27E2,1.27E2,3.1E1,9.5E1,3.3E1,3E1,6.3E1,6.3E1,3.3E1,1.25E2,1.58E2,3.3E1,6.3E1,3.2E1,6.3E1,3.1E1,6.4E1,4.1E2,6.4E1,3.1E1,3.2E1,9.5E1,3.1E1,6.3E1,3.2E1,3.79E2,5.06E2,3.1E1,2.54E2,6.2E1,1.59E2,4.44E2,6.1E1,3.5E1,1.86E2,9.8E1,6E1,6.3E1,2.81E2,5.72E2,1.54E2,6.7E1,2.8E1,2.54E2,9.6E1,3.1E1,6.6E1,6.1E1,6.3E1,3.2E1,3.3E1,3E1,3.2E1,9.3E1,1.28E2,3E1,3.1E1,3.2E1,1.89E2,2.21E2,3.2E1,3.2E1,6.3E1,3.2E1,1.9E2,1.89E2,4.75E2,3.1E1,2.21E2,3.3E1,6.6E1,9.3E1,2.86E2,1.58E2,3.3E1,2.8E1,1.57E2,2.9E1,6.3E1,3.5E1,3.2E1,2.8E1,3.5E1,2.8E1,2.8E1,2.53E2,3.5E1,5.37E2,9.1E1,6.3E1,3.2E1,3.5E1,3.5E1,2.19E2,3.5E1,6.1E1,3.1E1,3.5E1,2.8E1,3.3E1,3.2E1,3.1E1,3E1,6.3E1,9.6E1,3.2E1,1.58E2,3.1E1,1.58E2,6.3E1],"tree_param":{"num_deleted":"0","num_feature":"3","num_nodes":"265","size_leaf_vector":"1"}},{"base_weights":[-0E0,-5.713188E-3,2.5269054E-2,-4.4397466E-4,-3.2745812E-2,6.4850695E-2,-1.555072E-3,-7.895242E-3,8.583076E-3,-5.134318E-2,-2.4962954E-3,4.6024162E-2,2.2112378E-3,1.2126057E-2,-6.441949E-2,2.5360826E-3,-5.0329205E-2,5.0050892E-2,-3.6418661E-3,-2.4386337E-2,-8.037372E-2,5.602516E-3,-1.0543982E-3,6.336002E-2,-9.489386E-3,-0E0,1.3583708E-1,-8.0801314E-4,-5.1915817E-2,-1.9232422E-2,1.3696518E-2,-1.3557091E-1,-3.4060385E-2,3.35469E-2,1.0433873E-1,-1.5068948E-2,1.9510908E-2,-5.3921825E-4,-1.280429E-2,-9.538884E-2,-6.917095E-2,-2.7480258E-3,3.1550463E-2,4.371971E-2,1.2586125E-3,1.0503152E-2,-7.039224E-4,-1.1767965E-3,5.9464592E-3,1.6210561E-3,1.0242194E-3,-2.4461898E-4,-6.2925054E-4,-8.618997E-3,-9.8475546E-2,2.1945843E-3,9.332523E-3,-2.1215384E-3,-9.890708E-2,9.1582834E-4,-4.2645518E-2,5.6802977E-2,1.0003531E-2,7.743912E-4,1.2972676E-3,-3.974538E-3,-1.188221E-1,4.0623944E-2,-6.465416E-3,1.4467994E-3,-3.7989076E-2,-6.764488E-2,-1.6797798E-3,4.8059426E-4,-9.222108E-2,1.4718827E-2,-6.540157E-2,1.0254006E-3,-3.984025E-3,5.3260837E-2,-4.2797162E-4,-4.278559E-2,1.2154268E-3,8.9410326E-4,-3.4227811E-3,2.0563696E-2,-2.166074E-2,-1.5734835E-3,-6.501807E-2,2.544084E-2,-9.41348E-3,-2.3088625E-4,-1.77987E-3,-7.495372E-2,-3.0767193E-2,3.6428835E-2,1.8558429E-3,-1.922137E-2,2.233303E-2,6.6544074E-3,-3.6745317E-2,-2.0790338E-3,-8.581755E-2,2.7900027E-2,1.5221199E-3,-1.7799137E-3,1.2674656E-2,-1.2485204E-2,5.638555E-4,-1.0448925E-3,-3.6219782E-3,-7.783643E-4,-4.0538836E-4,-1.2811379E-3,-8.1381075E-2,-0E0,5.146888E-4,-8.646325E-4,-3.996595E-4,-5.5822724E-4,4.3374227E-4,3.8649596E-2,8.088685E-2,-1.11489055E-4,-7.0095435E-4,-4.404309E-2,4.4979597E-3,4.0924333E-2,4.351314E-3,-1.05227955E-1,-2.096308E-3,-2.4725634E-4,-9.908899E-4,1.2616474E-3,6.608111E-2,-8.692808E-4,6.6068065E-3,-4.2144947E-2,-1.7866051E-3,6.437802E-4,-5.371143E-2,5.298555E-4,-4.1418022E-4,2.4998127E-4,-7.6900003E-4,1.0700431E-3,-1.6226092E-3,4.2599588E-4,1.8639264E-3,-1.0535736E-3,-1.5113045E-2,-1.0050721E-4,-1.2375996E-3,7.993851E-4,2.0828348E-2,-2.4657778E-2,5.0689317E-2,2.9902376E-4,-2.752601E-2,-2.4364125E-4,1.6018504E-4,-6.461858E-2,-9.5309486E-4,2.7275755E-4,-8.153211E-3,5.895389E-2,-5.44984E-4,6.7968725E-4,1.0045875E-3,-5.091461E-2,-2.5798698E-4,1.1971078E-3,-1.3490681E-2,1.4373736E-2,9.045134E-4,-4.067196E-4,2.0824404E-2,-2.5426326E-4,-1.4192208E-3,7.335413E-4,-8.906225E-3,1.669539E-2,-2.4018113E-3,5.48574E-2,1.088742E-3,3.7583314E-2,-4.3209414E-3,-1.9005567E-2,-7.804763E-4,-6.95987E-2,-2.21495E-2,-2.7662765E-2,2.165977E-2,-2.192907E-2,1.1601742E-2,-3.1780463E-2,2.163053E-2,-7.6638116E-4,3.2223247E-2,-2.7667875E-3,-8.711929E-4,1.0204099E-1,-4.008282E-3,-1.9134386E-2,-3.993625E-4,-8.1921107E-4,-4.0331326E-4,-3.8437123E-4,1.5012814E-3,6.836692E-2,1.4655963E-4,-2.6088126E-4,-7.0415606E-4,-3.63191E-2,5.6574736E-3,4.2456487E-4,-1.1114279E-4,7.542345E-5,4.2922204E-4,-2.8001264E-4,9.8098746E-5,1.1481538E-4,9.0604706E-4,7.613591E-4,-8.2751043E-4,5.7903276E-4,2.1636282E-4,-2.005608E-4,2.3479722E-4,-5.303634E-4,1.8099672E-4,-4.594632E-4,-1.8851461E-3,8.553242E-5,-7.8894664E-4,-1.00044614E-4,-4.3354533E-4,5.089712E-4,-1.1933487E-4,1.6244355E-4,-2.6594818E-4,2.1551505E-3,-1.8787052E-5,-1.7658144E-4,-5.0022226E-4,7.3902204E-4,-2.4108242E-4,1.3354322E-3,1.5042596E-4,2.456886E-4,-2.0207377E-4,1.2144714E-3,7.917882E-4,-7.7664456E-4,5.599282E-4,-3.9589658E-4,-0E0,1.5828699E-4,-3.899519E-5,4.4984493E-4,1.3199508E-3,-1.9176227E-4,-1.1723776E-3,2.878898E-4,-5.033576E-4],"categories":[],"categories_nodes":[],"categories_segments":[],"categories_sizes":[],"default_left":[0,0,0,0,0,0,0,0,0,0,0,0,0,0,0,0,0,0,0,0,0,0,0,0,0,0,0,0,0,0,0,0,0,0,0,0,0,0,0,0,0,0,0,0,0,0,0,0,0,0,0,0,0,0,0,0,0,0,0,0,0,0,0,0,0,0,0,0,0,0,0,0,0,0,0,0,0,0,0,0,0,0,0,0,0,0,0,0,0,0,0,0,0,0,0,0,0,0,0,0,0,0,0,0,0,0,0,0,0,0,0,0,0,0,0,0,0,0,0,0,0,0,0,0,0,0,0,0,0,0,0,0,0,0,0,0,0,0,0,0,0,0,0,0,0,0,0,0,0,0,0,0,0,0,0,0,0,0,0,0,0,0,0,0,0,0,0,0,0,0,0,0,0,0,0,0,0,0,0,0,0,0,0,0,0,0,0,0,0,0,0,0,0,0,0,0,0,0,0,0,0,0,0,0,0,0,0,0,0,0,0,0,0,0,0,0,0,0,0,0,0,0,0,0,0,0,0,0,0,0,0,0,0,0,0,0,0,0,0,0,0,0,0,0,0,0,0,0,0,0,0,0,0,0,0,0,0,0,0,0,0,0,0,0,0],"id":6,"left_children":[1,3,5,7,9,11,13,15,17,19,21,23,-1,25,27,29,31,33,35,37,39,41,-1,43,45,47,49,-1,51,53,55,57,59,61,63,65,67,-1,69,71,73,75,77,79,-1,81,-1,-1,83,-1,-1,-1,-1,85,87,-1,89,-1,91,-1,93,95,97,-1,-1,99,101,103,105,107,109,111,-1,-1,113,115,117,-1,119,121,-1,123,-1,-1,125,127,129,-1,131,133,135,-1,-1,137,139,141,-1,143,145,147,149,-1,151,153,-1,-1,155,157,-1,-1,159,-1,-1,-1,161,163,-1,-1,-1,-1,-1,165,167,-1,-1,169,171,173,175,177,179,-1,-1,181,183,-1,185,187,-1,-1,189,-1,-1,-1,-1,-1,191,193,-1,-1,195,-1,-1,-1,197,199,201,-1,203,-1,-1,205,-1,-1,207,209,-1,-1,-1,211,-1,-1,213,215,-1,-1,217,-1,-1,-1,219,221,-1,223,-1,225,227,229,-1,231,233,235,237,239,241,243,245,-1,247,249,-1,251,253,255,-1,-1,-1,-1,257,259,-1,-1,-1,261,263,-1,-1,-1,-1,-1,-1,-1,-1,-1,-1,-1,-1,-1,-1,-1,-1,-1,-1,-1,-1,-1,-1,-1,-1,-1,-1,-1,-1,-1,-1,-1,-1,-1,-1,-1,-1,-1,-1,-1,-1,-1,-1,-1,-1,-1,-1,-1,-1,-1,-1],"loss_changes":[1.1662893E0,9.372023E-1,1.5873656E0,3.719632E-1,5.986788E-1,1.7371831E0,7.688804E-1,1.3487694E0,1.2696426E0,5.0640905E-1,3.5406718E-1,5.256709E-1,0E0,1.0923152E0,1.5306652E-2,5.9152627E-1,8.1187534E-1,4.934119E-1,5.09409E-1,1.1133923E-1,3.026867E-2,8.573847E-2,0E0,4.8451495E-1,1.625814E-1,4.655351E-1,1.3998985E-2,0E0,1.9039959E-2,6.806184E-1,1.4243543E0,2.1465361E-1,5.4589427E-1,2.3366272E-1,5.870104E-2,1.4755945E0,3.5138887E-1,0E0,9.451359E-2,2.2486937E-1,5.195594E-1,3.201123E-1,2.524317E-1,2.6499927E-1,0E0,5.81123E-1,0E0,0E0,5.0390637E-1,0E0,0E0,0E0,0E0,2.7762696E-1,1.5662748E-1,0E0,4.7955334E-1,0E0,3.77496E-1,0E0,1.6979498E-1,5.456522E-1,8.073333E-2,0E0,0E0,4.1078663E-1,3.1735694E-1,4.7752482E-1,9.4788206E-1,1.2755913E-1,2.036397E-1,1.152733E-2,0E0,0E0,3.0487657E-2,1.2630878E-1,1.8187374E-2,0E0,1.607855E-1,1.0076773E-1,0E0,4.7253624E-2,0E0,0E0,1.8722434E-1,6.8905406E-2,8.163292E-1,0E0,7.30277E-2,8.3236456E-1,9.1388303E-1,0E0,0E0,3.957014E-1,7.708194E-1,2.4952891E-1,0E0,1.7034586E-1,3.332202E-1,9.686234E-1,4.153044E-1,0E0,2.5272936E-1,1.0528216E-1,0E0,0E0,3.657439E-1,8.155346E-2,0E0,0E0,2.729753E-2,0E0,0E0,0E0,7.4997544E-3,3.36707E-2,0E0,0E0,0E0,0E0,0E0,3.6678883E-1,6.0111284E-4,0E0,0E0,2.9249936E-3,9.966849E-1,1.1445464E-1,9.3796276E-2,2.578405E-1,2.0589873E-1,0E0,0E0,1.9864461E0,1.2990856E-1,0E0,2.079447E-1,6.939565E-2,0E0,0E0,1.3219196E-1,0E0,0E0,0E0,0E0,0E0,7.637779E-2,2.125804E-1,0E0,0E0,1.3765979E-1,0E0,0E0,0E0,3.1233364E-1,1.6579042E-1,3.697404E-1,0E0,3.3264235E-3,0E0,0E0,1.1365533E-2,0E0,0E0,4.0590644E-2,5.6995273E-2,0E0,0E0,0E0,1.9497648E-2,0E0,0E0,1.8292882E-1,5.0131377E-2,0E0,0E0,2.2806231E-2,0E0,0E0,0E0,1.379E-1,1.8412468E-1,0E0,7.5230515E-1,0E0,4.2640105E-2,1.947926E-1,8.274225E-2,0E0,4.938569E-1,1.8018994E-1,1.1132855E-2,6.736312E-2,5.1693395E-2,1.5968553E0,3.227915E-2,1.693383E-1,0E0,4.2702213E-1,4.6305057E-2,0E0,4.696846E-5,2.805218E-1,2.8290268E-2,0E0,0E0,0E0,0E0,8.528316E-3,1.6828811E-1,0E0,0E0,0E0,2.4767432E-1,2.8683057E-1,0E0,0E0,0E0,0E0,0E0,0E0,0E0,0E0,0E0,0E0,0E0,0E0,0E0,0E0,0E0,0E0,0E0,0E0,0E0,0E0,0E0,0E0,0E0,0E0,0E0,0E0,0E0,0E0,0E0,0E0,0E0,0E0,0E0,0E0,0E0,0E0,0E0,0E0,0E0,0E0,0E0,0E0,0E0,0E0,0E0,0E0,0E0,0E0,0E0,0E0],"parents":[2147483647,0,0,1,1,2,2,3,3,4,4,5,5,6,6,7,7,8,8,9,9,10,10,11,11,13,13,14,14,15,15,16,16,17,17,18,18,19,19,20,20,21,21,23,23,24,24,25,25,26,26,28,28,29,29,30,30,31,31,32,32,33,33,34,34,35,35,36,36,38,38,39,39,40,40,41,41,42,42,43,43,45,45,48,48,53,53,54,54,56,56,58,58,60,60,61,61,62,62,65,65,66,66,67,67,68,68,69,69,70,70,71,71,74,74,75,75,76,76,78,78,79,79,81,81,84,84,85,85,86,86,88,88,89,89,90,90,93,93,94,94,95,95,97,97,98,98,99,99,100,100,102,102,103,103,106,106,107,107,110,110,114,114,115,115,121,121,122,122,125,125,126,126,127,127,128,128,129,129,130,130,133,133,134,134,136,136,137,137,140,140,146,146,147,147,150,150,154,154,155,155,156,156,158,158,161,161,164,164,165,165,169,169,172,172,173,173,176,176,180,180,181,181,183,183,185,185,186,186,187,187,189,189,190,190,191,191,192,192,193,193,194,194,195,195,196,196,198,198,199,199,201,201,202,202,203,203,208,208,209,209,213,213,214,214],"right_children":[2,4,6,8,10,12,14,16,18,20,22,24,-1,26,28,30,32,34,36,38,40,42,-1,44,46,48,50,-1,52,54,56,58,60,62,64,66,68,-1,70,72,74,76,78,80,-1,82,-1,-1,84,-1,-1,-1,-1,86,88,-1,90,-1,92,-1,94,96,98,-1,-1,100,102,104,106,108,110,112,-1,-1,114,116,118,-1,120,122,-1,124,-1,-1,126,128,130,-1,132,134,136,-1,-1,138,140,142,-1,144,146,148,150,-1,152,154,-1,-1,156,158,-1,-1,160,-1,-1,-1,162,164,-1,-1,-1,-1,-1,166,168,-1,-1,170,172,174,176,178,180,-1,-1,182,184,-1,186,188,-1,-1,190,-1,-1,-1,-1,-1,192,194,-1,-1,196,-1,-1,-1,198,200,202,-1,204,-1,-1,206,-1,-1,208,210,-1,-1,-1,212,-1,-1,214,216,-1,-1,218,-1,-1,-1,220,222,-1,224,-1,226,228,230,-1,232,234,236,238,240,242,244,246,-1,248,250,-1,252,254,256,-1,-1,-1,-1,258,260,-1,-1,-1,262,264,-1,-1,-1,-1,-1,-1,-1,-1,-1,-1,-1,-1,-1,-1,-1,-1,-1,-1,-1,-1,-1,-1,-1,-1,-1,-1,-1,-1,-1,-1,-1,-1,-1,-1,-1,-1,-1,-1,-1,-1,-1,-1,-1,-1,-1,-1,-1,-1,-1,-1],"split_conditions":[4.80195E1,3.7368E1,7.3145E1,2.1838E1,4.0721E1,7.08675E1,8.6046E1,1.79835E1,2.7024E1,3.86845E1,4.7585E1,6.5955E1,2.2112378E-3,8.52725E1,8.70055E1,1.005E1,1.85155E1,2.63535E1,3.28805E1,3.7728E1,3.95105E1,4.5911E1,-1.0543982E-3,6.4457E1,6.8988E1,7.3812E1,8.56865E1,-8.0801314E-4,8.74015E1,9.338E0,1.0531E1,1.81065E1,1.87115E1,2.4049E1,2.67995E1,3.20765E1,3.61815E1,-5.3921825E-4,3.8282E1,3.9259E1,3.96345E1,4.4777E1,4.6642E1,6.3256E1,1.2586125E-3,6.76045E1,-7.039224E-4,-1.1767965E-3,7.5404E1,1.6210561E-3,1.0242194E-3,-2.4461898E-4,-6.2925054E-4,7.167E0,9.3835E0,2.1945843E-3,1.5543E1,-2.1215384E-3,1.8282E1,9.1582834E-4,1.985E1,2.37415E1,2.4555E1,7.743912E-4,1.2972676E-3,3.1026E1,3.22055E1,3.58605E1,3.6336E1,3.81065E1,3.84575E1,3.90925E1,-1.6797798E-3,4.8059426E-4,3.9799E1,4.39385E1,4.52995E1,1.0254006E-3,4.7063E1,5.94045E1,-4.2797162E-4,6.67505E1,1.2154268E-3,8.9410326E-4,7.78015E1,6.414E0,7.5805E0,-1.5734835E-3,9.6315E0,1.39865E1,1.60015E1,-2.3088625E-4,-1.77987E-3,1.9358E1,2.0252E1,2.32625E1,1.8558429E-3,2.44275E1,2.468E1,3.09465E1,3.1287E1,-2.0790338E-3,3.2374E1,3.31535E1,1.5221199E-3,-1.7799137E-3,3.6944E1,3.77935E1,5.638555E-4,-1.0448925E-3,3.8576E1,-7.783643E-4,-4.0538836E-4,-1.2811379E-3,4.0204E1,4.1246E1,5.146888E-4,-8.646325E-4,-3.996595E-4,-5.5822724E-4,4.3374227E-4,5.7406E1,6.17025E1,-1.11489055E-4,-7.0095435E-4,7.68905E1,7.84945E1,6.3065E0,6.4995E0,7.307E0,7.8605E0,-2.4725634E-4,-9.908899E-4,1.37715E1,1.52375E1,-8.692808E-4,1.65485E1,1.90135E1,-1.7866051E-3,6.437802E-4,2.0965E1,5.298555E-4,-4.1418022E-4,2.4998127E-4,-7.6900003E-4,1.0700431E-3,2.5013E1,2.8374E1,1.8639264E-3,-1.0535736E-3,3.1881E1,-1.0050721E-4,-1.2375996E-3,7.993851E-4,3.3301E1,3.6812E1,3.7198E1,2.9902376E-4,3.7997E1,-2.4364125E-4,1.6018504E-4,4.00155E1,-9.5309486E-4,2.7275755E-4,4.19095E1,5.56375E1,-5.44984E-4,6.7968725E-4,1.0045875E-3,7.6049E1,-2.5798698E-4,1.1971078E-3,8.0802E1,6.262E0,9.045134E-4,-4.067196E-4,7.0805E0,-2.5426326E-4,-1.4192208E-3,7.335413E-4,8.9255E0,1.35705E1,-2.4018113E-3,1.51455E1,1.088742E-3,1.6186E1,1.73835E1,1.8855E1,-7.804763E-4,2.0858E1,2.1565E1,2.4818E1,2.57105E1,2.70845E1,2.8475E1,3.171E1,3.19445E1,-7.6638116E-4,3.35395E1,3.65375E1,-8.711929E-4,3.7069E1,3.72825E1,3.7905E1,-3.993625E-4,-8.1921107E-4,-4.0331326E-4,-3.8437123E-4,4.2273E1,5.40495E1,1.4655963E-4,-2.6088126E-4,-7.0415606E-4,8.0343E1,8.38295E1,4.2456487E-4,-1.1114279E-4,7.542345E-5,4.2922204E-4,-2.8001264E-4,9.8098746E-5,1.1481538E-4,9.0604706E-4,7.613591E-4,-8.2751043E-4,5.7903276E-4,2.1636282E-4,-2.005608E-4,2.3479722E-4,-5.303634E-4,1.8099672E-4,-4.594632E-4,-1.8851461E-3,8.553242E-5,-7.8894664E-4,-1.00044614E-4,-4.3354533E-4,5.089712E-4,-1.1933487E-4,1.6244355E-4,-2.6594818E-4,2.1551505E-3,-1.8787052E-5,-1.7658144E-4,-5.0022226E-4,7.3902204E-4,-2.4108242E-4,1.3354322E-3,1.5042596E-4,2.456886E-4,-2.0207377E-4,1.2144714E-3,7.917882E-4,-7.7664456E-4,5.599282E-4,-3.9589658E-4,-0E0,1.5828699E-4,-3.899519E-5,4.4984493E-4,1.3199508E-3,-1.9176227E-4,-1.1723776E-3,2.878898E-4,-5.033576E-4],"split_indices":[1,1,1,1,1,1,1,1,1,1,1,1,0,1,1,1,1,1,1,1,1,1,0,1,1,1,1,0,1,1,1,1,1,1,1,1,1,0,1,1,1,1,1,1,0,1,0,0,1,0,0,0,0,1,1,0,1,0,1,0,1,1,1,0,0,1,1,1,1,1,1,1,0,0,1,1,1,0,1,1,0,1,0,0,1,1,1,0,1,1,1,0,0,1,1,1,0,1,1,1,1,0,1,1,0,0,1,1,0,0,1,0,0,0,1,1,0,0,0,0,0,1,1,0,0,1,1,1,1,1,1,0,0,1,1,0,1,1,0,0,1,0,0,0,0,0,1,1,0,0,1,0,0,0,1,1,1,0,1,0,0,1,0,0,1,1,0,0,0,1,0,0,1,1,0,0,1,0,0,0,1,1,0,1,0,1,1,1,0,1,1,1,1,1,1,1,1,0,1,1,0,1,1,1,0,0,0,0,1,1,0,0,0,1,1,0,0,0,0,0,0,0,0,0,0,0,0,0,0,0,0,0,0,0,0,0,0,0,0,0,0,0,0,0,0,0,0,0,0,0,0,0,0,0,0,0,0,0,0,0,0,0,0,0,0],"split_type":[0,0,0,0,0,0,0,0,0,0,0,0,0,0,0,0,0,0,0,0,0,0,0,0,0,0,0,0,0,0,0,0,0,0,0,0,0,0,0,0,0,0,0,0,0,0,0,0,0,0,0,0,0,0,0,0,0,0,0,0,0,0,0,0,0,0,0,0,0,0,0,0,0,0,0,0,0,0,0,0,0,0,0,0,0,0,0,0,0,0,0,0,0,0,0,0,0,0,0,0,0,0,0,0,0,0,0,0,0,0,0,0,0,0,0,0,0,0,0,0,0,0,0,0,0,0,0,0,0,0,0,0,0,0,0,0,0,0,0,0,0,0,0,0,0,0,0,0,0,0,0,0,0,0,0,0,0,0,0,0,0,0,0,0,0,0,0,0,0,0,0,0,0,0,0,0,0,0,0,0,0,0,0,0,0,0,0,0,0,0,0,0,0,0,0,0,0,0,0,0,0,0,0,0,0,0,0,0,0,0,0,0,0,0,0,0,0,0,0,0,0,0,0,0,0,0,0,0,0,0,0,0,0,0,0,0,0,0,0,0,0,0,0,0,0,0,0,0,0,0,0,0,0,0,0,0,0,0,0,0,0,0,0,0,0],"sum_hessian":[8.09E3,6.602E3,1.488E3,5.529E3,1.073E3,6.02E2,8.86E2,3.035E3,2.494E3,6.62E2,4.11E2,5.39E2,6.3E1,7.27E2,1.59E2,2.435E3,6E2,5.69E2,1.925E3,3.46E2,3.16E2,3.81E2,3E1,4.12E2,1.27E2,6.63E2,6.4E1,6.3E1,9.6E1,8.22E2,1.613E3,9.4E1,5.06E2,4.39E2,1.3E2,1.292E3,6.33E2,9.4E1,2.52E2,1.28E2,1.88E2,2.86E2,9.5E1,3.16E2,9.6E1,9.5E1,3.2E1,3.1E1,6.32E2,3.2E1,3.2E1,3.1E1,6.5E1,7.27E2,9.5E1,3.2E1,1.581E3,2.8E1,6.6E1,3.1E1,4.75E2,2.18E2,2.21E2,6.7E1,6.3E1,1.169E3,1.23E2,3.51E2,2.82E2,1.59E2,9.3E1,9.5E1,3.3E1,3E1,1.58E2,2.23E2,6.3E1,3.2E1,6.3E1,2.86E2,3E1,6.4E1,3.1E1,6.4E1,5.68E2,2.22E2,5.05E2,3.2E1,6.3E1,8.53E2,7.28E2,3.5E1,3.1E1,1.24E2,3.51E2,1.9E2,2.8E1,6.3E1,1.58E2,8.81E2,2.88E2,3.1E1,9.2E1,3.17E2,3.4E1,2.8E1,2.54E2,1.26E2,3.3E1,3E1,6.3E1,6.5E1,3E1,3.2E1,1.26E2,1.58E2,6.5E1,3.1E1,3.2E1,3.1E1,3.2E1,1.91E2,9.5E1,3.2E1,3.2E1,9.4E1,4.74E2,9.5E1,1.27E2,9.4E1,4.11E2,3.1E1,3.2E1,5.37E2,3.16E2,1.25E2,6.03E2,9.6E1,2.8E1,6.7E1,2.84E2,1.58E2,3.2E1,3.5E1,2.8E1,3.5E1,1.23E2,8.53E2,2.8E1,6.7E1,2.21E2,3.2E1,6E1,3.5E1,2.82E2,1.27E2,1.27E2,3.1E1,9.5E1,3.3E1,3E1,6.3E1,6.3E1,3.3E1,1.25E2,1.58E2,3.3E1,6.3E1,3.2E1,6.3E1,3.1E1,6.4E1,4.1E2,6.4E1,3.1E1,3.2E1,9.5E1,3.1E1,6.3E1,3.2E1,3.79E2,5.06E2,3.1E1,2.54E2,6.2E1,1.59E2,4.44E2,6.1E1,3.5E1,1.86E2,9.8E1,6E1,6.3E1,2.81E2,5.72E2,1.54E2,6.7E1,2.8E1,2.54E2,9.6E1,3.1E1,6.6E1,6.1E1,6.3E1,3.2E1,3.3E1,3E1,3.2E1,9.3E1,1.28E2,3E1,3.1E1,3.2E1,1.89E2,2.21E2,3.2E1,3.2E1,6.3E1,3.2E1,1.9E2,1.89E2,4.75E2,3.1E1,2.21E2,3.3E1,6.6E1,9.3E1,2.86E2,1.58E2,3.3E1,2.8E1,1.57E2,2.9E1,6.3E1,3.5E1,3.2E1,2.8E1,3.5E1,2.8E1,2.8E1,2.53E2,3.5E1,5.37E2,9.1E1,6.3E1,3.2E1,3.5E1,3.5E1,2.19E2,3.5E1,6.1E1,3.1E1,3.5E1,2.8E1,3.3E1,3.2E1,3.1E1,3E1,6.3E1,9.6E1,3.2E1,1.58E2,3.1E1,1.58E2,6.3E1],"tree_param":{"num_deleted":"0","num_feature":"3","num_nodes":"265","size_leaf_vector":"1"}},{"base_weights":[-2.1808544E-6,8.932252E-3,-3.7745655E-2,7.094198E-3,1.0091799E-1,-6.604965E-2,-2.1176383E-2,9.150378E-3,-5.943363E-2,1.2444502E-3,7.5023813E-4,-4.1191004E-2,-1.5164956E-1,-3.6770772E-4,-6.431033E-2,7.769595E-3,2.5740503E-3,-9.46387E-2,7.1613966E-3,-1.0054825E-3,-3.6093965E-2,-1.19759254E-1,-2.3945642E-3,-7.4521904E-3,1.325064E-3,-1.1336257E-1,-3.1008525E-2,5.845639E-3,5.9031636E-2,-2.5812772E-4,-1.1577334E-3,2.6761674E-4,-1.02195365E-4,7.891932E-3,-4.434326E-2,-1.5706087E-3,-4.0757342E-4,5.2041188E-2,-1.8240131E-2,-6.601452E-4,-1.5737682E-3,1.6608655E-2,-1.2368084E-3,7.917025E-3,-2.7666062E-2,1.4586875E-1,2.3078134E-2,-9.498431E-5,2.6456913E-4,-1.1758056E-3,-3.651956E-2,2.366834E-4,1.0246E-3,-3.7393477E-2,1.6229002E-2,-7.1763857E-3,9.056975E-4,5.5509317E-3,1.403311E-1,-9.199747E-2,-3.8623011E-3,1.7113882E-3,1.1022193E-3,3.164024E-2,-1.0069909E-4,9.414542E-7,-4.6139132E-2,-5.918274E-2,-2.4309557E-2,7.5470883E-4,-1.3432035E-2,8.244635E-3,-3.9896654E-4,7.209023E-3,-4.987558E-2,1.7149432E-3,7.911959E-4,-9.253382E-5,-1.2649092E-1,-1.9592507E-2,2.1189418E-2,-0E0,4.193559E-2,-1.0436377E-3,-3.742885E-2,-4.8109006E-2,-8.7429484E-4,1.325219E-4,-3.123181E-2,-3.5660906E-4,7.4442136E-3,1.3739728E-4,-0E0,5.4228534E-3,5.4849304E-2,-1.05121784E-1,-1.2448914E-2,-1.6850303E-3,-7.310698E-4,-5.540843E-3,-7.4207736E-4,5.1918384E-2,-4.1691258E-4,7.317198E-4,2.3611583E-2,-4.955507E-3,-5.004402E-2,-8.5986254E-4,-2.7183143E-2,-5.0348673E-2,-2.0564795E-2,2.9464666E-4,-1.11042325E-4,1.0234702E-3,4.7811907E-5,8.4847107E-4,3.876629E-4,-1.2229898E-3,-7.731752E-4,3.8446745E-4,-1.1082754E-3,-1.7817105E-4,2.6343332E-4,7.290522E-4,2.7080614E-4,-0E0,4.066631E-4,-2.4753917E-4,1.2562718E-4,-8.717282E-4,-3.9589597E-4,-4.0087968E-4,-1.0424282E-4,-2.6101898E-4,-6.930467E-4,-7.638562E-5,-5.5575836E-4],"categories":[],"categories_nodes":[],"categories_segments":[],"categories_sizes":[],"default_left":[0,0,0,0,0,0,0,0,0,0,0,0,0,0,0,0,0,0,0,0,0,0,0,0,0,0,0,0,0,0,0,0,0,0,0,0,0,0,0,0,0,0,0,0,0,0,0,0,0,0,0,0,0,0,0,0,0,0,0,0,0,0,0,0,0,0,0,0,0,0,0,0,0,0,0,0,0,0,0,0,0,0,0,0,0,0,0,0,0,0,0,0,0,0,0,0,0,0,0,0,0,0,0,0,0,0,0,0,0,0,0,0,0,0,0,0,0,0,0,0,0,0,0,0,0,0,0,0,0,0,0,0,0,0,0,0,0],"id":7,"left_children":[1,3,5,7,9,11,13,15,17,-1,-1,19,21,23,25,27,-1,29,31,-1,33,35,-1,37,-1,39,41,43,45,-1,-1,-1,-1,47,49,-1,-1,51,53,-1,-1,55,-1,57,59,61,63,-1,-1,-1,65,-1,-1,67,69,71,-1,73,75,77,79,-1,-1,81,-1,-1,83,85,87,-1,89,91,-1,93,95,-1,-1,-1,97,99,101,-1,103,-1,105,107,-1,-1,109,-1,111,-1,-1,113,115,117,119,-1,-1,121,-1,123,-1,-1,125,127,129,-1,131,133,135,-1,-1,-1,-1,-1,-1,-1,-1,-1,-1,-1,-1,-1,-1,-1,-1,-1,-1,-1,-1,-1,-1,-1,-1,-1,-1],"loss_changes":[2.7316375E0,1.0944012E0,7.172613E-1,8.7304384E-1,4.808688E-2,1.187371E0,8.749126E-1,2.1053243E0,4.5722163E-1,0E0,0E0,1.1703712E-1,2.9102516E-1,6.1447597E-1,5.0150955E-1,6.0385895E-1,0E0,1.6613388E-1,2.4411997E-2,0E0,1.534903E-1,2.567191E-1,0E0,4.038355E-1,0E0,2.3193836E-1,8.60018E-1,4.127252E-1,6.728447E-1,0E0,0E0,0E0,0E0,2.2609662E-2,1.802684E-1,0E0,0E0,1.2229255E-1,3.5791045E-1,0E0,0E0,2.324036E-1,0E0,1.7475948E0,5.1836735E-1,1.0651708E-2,4.7602534E-2,0E0,0E0,0E0,1.16611004E-1,0E0,0E0,8.9423E-2,3.428382E-1,5.193381E-2,0E0,5.0431204E-1,1.4830971E-1,2.4783504E-1,1.0034891E-1,0E0,0E0,3.9682493E-2,0E0,0E0,1.1073148E-1,2.1965235E-2,5.9934497E-2,0E0,6.2022187E-2,1.8794076E-3,0E0,4.5079818E-1,3.1569558E-1,0E0,0E0,0E0,1.0705769E-1,1.13636106E-1,1.8868403E-1,0E0,4.3542027E-2,0E0,8.6015135E-2,6.243664E-2,0E0,0E0,3.0618012E-2,0E0,2.8303716E-2,0E0,0E0,3.1101775E-1,7.698083E-2,6.712079E-4,4.971824E-1,0E0,0E0,5.010972E-2,0E0,2.2430673E-2,0E0,0E0,2.2200778E-2,2.4421073E-2,4.5590073E-2,0E0,8.588448E-3,1.8066168E-2,5.0729267E-2,0E0,0E0,0E0,0E0,0E0,0E0,0E0,0E0,0E0,0E0,0E0,0E0,0E0,0E0,0E0,0E0,0E0,0E0,0E0,0E0,0E0,0E0,0E0,0E0,0E0,0E0],"parents":[2147483647,0,0,1,1,2,2,3,3,4,4,5,5,6,6,7,7,8,8,11,11,12,12,13,13,14,14,15,15,17,17,18,18,20,20,21,21,23,23,25,25,26,26,27,27,28,28,33,33,34,34,37,37,38,38,41,41,43,43,44,44,45,45,46,46,50,50,53,53,54,54,55,55,57,57,58,58,59,59,60,60,63,63,66,66,67,67,68,68,70,70,71,71,73,73,74,74,78,78,79,79,80,80,82,82,84,84,85,85,88,88,90,90,93,93,94,94,95,95,96,96,99,99,101,101,104,104,105,105,106,106,108,108,109,109,110,110],"right_children":[2,4,6,8,10,12,14,16,18,-1,-1,20,22,24,26,28,-1,30,32,-1,34,36,-1,38,-1,40,42,44,46,-1,-1,-1,-1,48,50,-1,-1,52,54,-1,-1,56,-1,58,60,62,64,-1,-1,-1,66,-1,-1,68,70,72,-1,74,76,78,80,-1,-1,82,-1,-1,84,86,88,-1,90,92,-1,94,96,-1,-1,-1,98,100,102,-1,104,-1,106,108,-1,-1,110,-1,112,-1,-1,114,116,118,120,-1,-1,122,-1,124,-1,-1,126,128,130,-1,132,134,136,-1,-1,-1,-1,-1,-1,-1,-1,-1,-1,-1,-1,-1,-1,-1,-1,-1,-1,-1,-1,-1,-1,-1,-1,-1,-1],"split_conditions":[6.6448784E1,6.569766E1,7.075455E1,6.448368E1,6.607994E1,6.97128E1,7.857139E1,6.432426E1,6.527779E1,1.2444502E-3,7.5023813E-4,6.66668E1,7.046951E1,7.804612E1,8.083944E1,6.2935726E1,2.5740503E-3,6.465121E1,6.547611E1,-1.0054825E-3,6.708065E1,7.018086E1,-2.3945642E-3,7.151711E1,1.325064E-3,7.9496506E1,8.537315E1,6.113678E1,6.3366516E1,-2.5812772E-4,-1.1577334E-3,2.6761674E-4,-1.02195365E-4,6.690043E1,6.7323944E1,-1.5706087E-3,-4.0757342E-4,7.118654E1,7.53521E1,-6.601452E-4,-1.5737682E-3,8.3848755E1,-1.2368084E-3,6.0579716E1,6.1580517E1,6.315787E1,6.4165054E1,-9.498431E-5,2.6456913E-4,-1.1758056E-3,6.7741905E1,2.366834E-4,1.0246E-3,7.259227E1,7.628176E1,8.278691E1,9.056975E-4,5.963541E1,6.0975624E1,6.129042E1,6.2374374E1,1.7113882E-3,1.1022193E-3,6.355155E1,-1.0069909E-4,9.414542E-7,6.797778E1,7.226902E1,7.291058E1,7.5470883E-4,7.704482E1,8.184934E1,-3.9896654E-4,5.8545322E1,6.009612E1,1.7149432E-3,7.911959E-4,-9.253382E-5,6.14093E1,6.220075E1,6.2755665E1,-0E0,6.375254E1,-1.0436377E-3,6.84655E1,7.1774055E1,-8.7429484E-4,1.325219E-4,7.3637955E1,-3.5660906E-4,7.74193E1,1.3739728E-4,-0E0,1.2235588E1,5.8928745E1,5.988344E1,6.0408005E1,-1.6850303E-3,-7.310698E-4,6.2027187E1,-7.4207736E-4,6.2547295E1,-4.1691258E-4,7.317198E-4,6.3917675E1,6.819657E1,6.871657E1,-8.5986254E-4,7.204957E1,7.322849E1,7.499976E1,2.9464666E-4,-1.11042325E-4,1.0234702E-3,4.7811907E-5,8.4847107E-4,3.876629E-4,-1.2229898E-3,-7.731752E-4,3.8446745E-4,-1.1082754E-3,-1.7817105E-4,2.6343332E-4,7.290522E-4,2.7080614E-4,-0E0,4.066631E-4,-2.4753917E-4,1.2562718E-4,-8.717282E-4,-3.9589597E-4,-4.0087968E-4,-1.0424282E-4,-2.6101898E-4,-6.930467E-4,-7.638562E-5,-5.5575836E-4],"split_indices":[2,2,2,2,2,2,2,2,2,0,0,2,2,2,2,2,0,2,2,0,2,2,0,2,0,2,2,2,2,0,0,0,0,2,2,0,0,2,2,0,0,2,0,2,2,2,2,0,0,0,2,0,0,2,2,2,0,2,2,2,2,0,0,2,0,0,2,2,2,0,2,2,0,2,2,0,0,0,2,2,2,0,2,0,2,2,0,0,2,0,2,0,0,2,2,2,2,0,0,2,0,2,0,0,2,2,2,0,2,2,2,0,0,0,0,0,0,0,0,0,0,0,0,0,0,0,0,0,0,0,0,0,0,0,0,0,0],"split_type":[0,0,0,0,0,0,0,0,0,0,0,0,0,0,0,0,0,0,0,0,0,0,0,0,0,0,0,0,0,0,0,0,0,0,0,0,0,0,0,0,0,0,0,0,0,0,0,0,0,0,0,0,0,0,0,0,0,0,0,0,0,0,0,0,0,0,0,0,0,0,0,0,0,0,0,0,0,0,0,0,0,0,0,0,0,0,0,0,0,0,0,0,0,0,0,0,0,0,0,0,0,0,0,0,0,0,0,0,0,0,0,0,0,0,0,0,0,0,0,0,0,0,0,0,0,0,0,0,0,0,0,0,0,0,0,0,0],"sum_hessian":[8.09E3,6.54E3,1.55E3,6.414E3,1.26E2,5.69E2,9.81E2,6.224E3,1.9E2,6.2E1,6.4E1,4.43E2,1.26E2,6.64E2,3.17E2,6.191E3,3.3E1,1.25E2,6.5E1,3.2E1,4.11E2,9.5E1,3.1E1,6.32E2,3.2E1,1.26E2,1.91E2,5.97E3,2.21E2,3.1E1,9.4E1,3.3E1,3.2E1,6.3E1,3.48E2,6.3E1,3.2E1,9.5E1,5.37E2,6.3E1,6.3E1,1.26E2,6.5E1,5.626E3,3.44E2,6.3E1,1.58E2,3E1,3.3E1,3.1E1,3.17E2,6.3E1,3.2E1,3.47E2,1.9E2,9.5E1,3.1E1,5.529E3,9.7E1,9.1E1,2.53E2,3.3E1,3E1,1.28E2,3E1,6.4E1,2.53E2,1.26E2,2.21E2,6.4E1,1.26E2,6.3E1,3.2E1,5.371E3,1.58E2,6.2E1,3.5E1,2.8E1,6.3E1,1.58E2,9.5E1,3.3E1,9.5E1,3E1,2.23E2,9.5E1,3.1E1,3.2E1,1.89E2,6.3E1,6.3E1,3.2E1,3.1E1,5.18E3,1.91E2,6.2E1,9.6E1,3.3E1,3E1,1.28E2,3E1,6.5E1,3E1,3.2E1,6.3E1,6.5E1,1.58E2,3.1E1,6.4E1,6.3E1,1.26E2,3.1E1,3.2E1,3.2E1,5.148E3,6.3E1,1.28E2,3.4E1,2.8E1,6.3E1,3.3E1,9.5E1,3.3E1,3.2E1,3.3E1,2.9E1,3.4E1,3.3E1,3.2E1,3.1E1,1.27E2,3.2E1,3.2E1,3.1E1,3.2E1,9.5E1,3.1E1],"tree_param":{"num_deleted":"0","num_feature":"3","num_nodes":"137","size_leaf_vector":"1"}},{"base_weights":[-3.4274171E-6,-6.5115565E-3,2.3662832E-2,-7.3617575E-4,-5.33591E-2,4.410478E-2,-1.4857044E-2,-1.6315263E-3,1.6389294E-3,-4.879029E-2,-9.607982E-2,1.4070419E-3,3.8039975E-2,-1.4822073E-3,-7.195339E-3,2.2113728E-3,-1.9868104E-2,-5.7846352E-2,-2.108837E-2,-1.3972517E-3,-4.188556E-4,-3.3527315E-2,5.3359225E-2,9.372406E-3,-6.493862E-2,1.0286164E-3,1.8694901E-3,-8.7458305E-2,3.5077923E-3,-4.6838388E-2,-1.2845016E-1,4.162256E-4,-3.9134353E-2,-4.038771E-3,-4.744588E-2,7.8425564E-2,3.6767077E-2,-1.3072234E-2,3.997246E-2,-1.292445E-3,-4.1360967E-2,-6.6179708E-3,1.5317137E-2,-5.5345107E-2,-1.386931E-1,1.4081998E-1,-9.278719E-3,-6.928536E-2,-3.9763615E-2,-1.8627726E-3,-5.72253E-4,-7.1716984E-4,-2.7163563E-2,-7.3333463E-4,5.63193E-4,-6.877067E-4,-3.8390944E-4,5.0112613E-2,1.5177323E-1,-1.137439E-1,5.7179574E-2,1.6037165E-3,-1.1145425E-3,1.519193E-3,1.6561951E-2,3.0490212E-4,-7.7086374E-2,6.192747E-3,-4.694331E-2,3.814804E-2,-1.7946584E-3,-7.943233E-2,5.192288E-4,-1.1041593E-3,-1.8630052E-3,1.9178052E-3,7.8803283E-4,-6.178293E-2,3.4347284E-3,-5.1029987E-4,-9.845347E-4,6.8482436E-4,-5.3268343E-2,-0E0,-4.2840723E-2,9.549667E-4,3.355756E-2,1.2301892E-3,1.9764819E-3,-7.1555254E-4,-1.5057144E-3,1.4918086E-3,4.2247057E-2,-1.9033134E-2,5.4410833E-4,-4.0889392E-4,3.2147247E-2,-9.80584E-4,-5.152275E-4,-1.6817445E-2,1.8487686E-2,-9.000409E-2,-3.4727942E-2,1.0113405E-2,9.7257204E-2,-1.5789007E-3,9.734365E-3,-1.01910055E-1,-5.4947496E-4,-1.1673715E-3,-3.8917415E-2,7.3777756E-4,-1.1207249E-2,-1.041379E-3,-4.6483148E-2,-6.871264E-4,-1.069188E-4,2.041015E-2,4.4921468E-4,-8.171362E-4,6.521038E-2,-1.0290632E-3,-8.732963E-4,2.1486249E-2,6.000063E-4,-7.827695E-3,-1.15567155E-1,8.083801E-2,1.4105692E-2,-6.132338E-2,-1.0502566E-1,-1.100431E-2,-8.001329E-2,3.6170773E-2,-2.9397711E-2,1.6348019E-3,6.693191E-2,-2.2782655E-2,2.9303564E-2,-5.556721E-4,-1.395883E-3,-5.215015E-3,-1.0007003E-3,-5.9759263E-2,1.506094E-3,-1.0898739E-2,-5.7826098E-2,3.6858825E-4,-1.0980992E-4,1.299582E-1,2.7425772E-2,1.3747107E-4,-7.139319E-3,3.8578617E-4,-9.2833805E-5,2.9481525E-4,-2.4485376E-4,-1.3759466E-3,-8.542647E-4,1.514861E-4,1.1188351E-3,-9.976851E-4,1.6929896E-4,-8.636945E-4,-2.6937743E-4,-1.5231903E-3,-7.324512E-4,-3.4000663E-4,2.171771E-4,-1.0712215E-3,-1.8956958E-4,1.3052176E-4,8.098952E-4,-6.491242E-4,3.8308877E-4,3.7205758E-4,8.57965E-4,5.9701662E-5,-6.529415E-4,1.1598619E-3,3.0916366E-5,-1.12051355E-4,-0E0,-2.5876047E-4,-7.443392E-4,8.001673E-4,-7.099234E-5,-2.363772E-4,-0E0,-8.58885E-4,-4.2220726E-4,9.655909E-4,2.191387E-3,-8.098113E-4,7.15177E-4,-1.1729653E-4,-0E0],"categories":[],"categories_nodes":[],"categories_segments":[],"categories_sizes":[],"default_left":[0,0,0,0,0,0,0,0,0,0,0,0,0,0,0,0,0,0,0,0,0,0,0,0,0,0,0,0,0,0,0,0,0,0,0,0,0,0,0,0,0,0,0,0,0,0,0,0,0,0,0,0,0,0,0,0,0,0,0,0,0,0,0,0,0,0,0,0,0,0,0,0,0,0,0,0,0,0,0,0,0,0,0,0,0,0,0,0,0,0,0,0,0,0,0,0,0,0,0,0,0,0,0,0,0,0,0,0,0,0,0,0,0,0,0,0,0,0,0,0,0,0,0,0,0,0,0,0,0,0,0,0,0,0,0,0,0,0,0,0,0,0,0,0,0,0,0,0,0,0,0,0,0,0,0,0,0,0,0,0,0,0,0,0,0,0,0,0,0,0,0,0,0,0,0,0,0,0,0,0,0,0,0,0,0,0,0,0,0,0,0,0,0,0,0,0,0],"id":8,"left_children":[1,3,5,7,9,11,13,15,-1,17,19,-1,21,-1,23,25,27,29,31,-1,-1,33,35,37,39,41,-1,43,45,47,49,-1,51,53,55,57,59,61,63,-1,65,67,69,71,73,75,77,79,81,-1,-1,-1,83,-1,-1,-1,-1,85,87,89,91,93,-1,-1,95,-1,97,99,101,103,105,107,-1,-1,-1,-1,-1,109,111,-1,-1,-1,113,-1,115,-1,117,-1,-1,-1,-1,-1,119,121,-1,-1,123,-1,-1,125,127,129,131,133,135,-1,137,139,-1,-1,141,-1,143,-1,145,-1,-1,147,-1,-1,149,151,-1,153,-1,155,157,159,161,163,165,167,169,171,173,-1,175,177,179,-1,-1,181,-1,183,185,187,189,-1,-1,191,193,-1,195,-1,-1,-1,-1,-1,-1,-1,-1,-1,-1,-1,-1,-1,-1,-1,-1,-1,-1,-1,-1,-1,-1,-1,-1,-1,-1,-1,-1,-1,-1,-1,-1,-1,-1,-1,-1,-1,-1,-1,-1,-1,-1,-1,-1],"loss_changes":[1.2446395E0,1.7126224E0,1.375268E0,8.1774E-1,1.1647713E-1,6.4464974E-1,5.995332E-1,3.961572E-1,0E0,1.4943671E-1,1.273675E-1,0E0,1.1823564E0,0E0,5.533839E-1,9.957222E-1,1.5634036E0,3.4407234E-1,1.8244894E-1,0E0,0E0,7.223274E-2,3.545046E-1,3.0815494E-1,1.7318124E-1,5.053082E-1,0E0,3.908298E-1,1.2979095E0,5.176866E-2,2.2035122E-1,0E0,3.7308857E-2,2.7351114E-1,1.09736025E-2,6.990466E-1,1.6537473E0,3.7934545E-1,4.7857502E-1,0E0,2.560005E-1,1.5557054E0,6.3425773E-1,4.1769767E-1,7.899344E-2,1.5693414E-1,4.5261094E-1,3.0080229E-2,4.684515E-1,0E0,0E0,0E0,4.4791162E-2,0E0,0E0,0E0,0E0,1.7548048E-1,7.025266E-2,6.645018E-2,6.271149E-1,2.4650289E-1,0E0,0E0,1.4280826E-1,0E0,1.5373647E-2,6.449444E-1,3.6627936E-1,1.1383095E0,1.6738098E0,5.0812066E-2,0E0,0E0,0E0,0E0,0E0,1.457569E-1,5.6120294E-1,0E0,0E0,0E0,7.846779E-2,0E0,4.372529E-2,0E0,2.09371E-2,0E0,0E0,0E0,0E0,0E0,1.1736099E0,1.8658304E-1,0E0,0E0,2.8274119E-2,0E0,0E0,6.889545E-1,3.9591497E-1,4.4995546E-2,6.013132E-1,4.8872054E-1,4.1184425E-1,0E0,5.4729265E-1,8.622563E-2,0E0,0E0,1.8680465E-1,0E0,2.805953E-1,0E0,9.542352E-2,0E0,0E0,5.152874E-2,0E0,0E0,8.320693E-1,1.09939985E-2,0E0,5.3776544E-2,0E0,4.5204195E-1,9.098709E-3,1.8138045E-1,4.4139975E-1,3.7154958E-2,1.1658776E-1,2.849019E-1,3.0646396E-1,2.869129E-1,4.5480356E-1,0E0,7.1427226E-2,3.9868876E-1,1.2101337E0,0E0,0E0,1.9005284E-3,0E0,3.478208E-2,2.4567445E-1,1.1276357E-2,6.720632E-2,0E0,0E0,3.2554626E-1,1.0659761E0,0E0,4.049902E-3,0E0,0E0,0E0,0E0,0E0,0E0,0E0,0E0,0E0,0E0,0E0,0E0,0E0,0E0,0E0,0E0,0E0,0E0,0E0,0E0,0E0,0E0,0E0,0E0,0E0,0E0,0E0,0E0,0E0,0E0,0E0,0E0,0E0,0E0,0E0,0E0,0E0,0E0,0E0,0E0,0E0,0E0,0E0,0E0],"parents":[2147483647,0,0,1,1,2,2,3,3,4,4,5,5,6,6,7,7,9,9,10,10,12,12,14,14,15,15,16,16,17,17,18,18,21,21,22,22,23,23,24,24,25,25,27,27,28,28,29,29,30,30,32,32,33,33,34,34,35,35,36,36,37,37,38,38,40,40,41,41,42,42,43,43,44,44,45,45,46,46,47,47,48,48,52,52,57,57,58,58,59,59,60,60,61,61,64,64,66,66,67,67,68,68,69,69,70,70,71,71,77,77,78,78,82,82,84,84,86,86,92,92,93,93,96,96,99,99,100,100,101,101,102,102,103,103,104,104,106,106,107,107,110,110,112,112,114,114,117,117,120,120,121,121,123,123,125,125,126,126,127,127,128,128,129,129,130,130,131,131,132,132,133,133,134,134,136,136,137,137,138,138,141,141,143,143,144,144,145,145,146,146,149,149,150,150,152,152],"right_children":[2,4,6,8,10,12,14,16,-1,18,20,-1,22,-1,24,26,28,30,32,-1,-1,34,36,38,40,42,-1,44,46,48,50,-1,52,54,56,58,60,62,64,-1,66,68,70,72,74,76,78,80,82,-1,-1,-1,84,-1,-1,-1,-1,86,88,90,92,94,-1,-1,96,-1,98,100,102,104,106,108,-1,-1,-1,-1,-1,110,112,-1,-1,-1,114,-1,116,-1,118,-1,-1,-1,-1,-1,120,122,-1,-1,124,-1,-1,126,128,130,132,134,136,-1,138,140,-1,-1,142,-1,144,-1,146,-1,-1,148,-1,-1,150,152,-1,154,-1,156,158,160,162,164,166,168,170,172,174,-1,176,178,180,-1,-1,182,-1,184,186,188,190,-1,-1,192,194,-1,196,-1,-1,-1,-1,-1,-1,-1,-1,-1,-1,-1,-1,-1,-1,-1,-1,-1,-1,-1,-1,-1,-1,-1,-1,-1,-1,-1,-1,-1,-1,-1,-1,-1,-1,-1,-1,-1,-1,-1,-1,-1,-1,-1,-1],"split_conditions":[4.3616E1,3.7838E1,7.8626E1,3.7758E1,4.216E1,4.4822E1,7.925E1,3.1758E1,1.6389294E-3,4.0316E1,4.3014E1,1.4070419E-3,4.8364E1,-1.4822073E-3,8.685E1,3.1652E1,3.2868E1,3.99E1,4.0494E1,-1.3972517E-3,-4.188556E-4,4.6148E1,6.4624E1,8.3052E1,8.7336E1,2.1652E1,1.8694901E-3,3.2366E1,3.316E1,3.8134E1,4.0106E1,4.162256E-4,4.0792E1,4.5306E1,4.6626E1,6.1868E1,6.5686E1,8.2292E1,8.3848E1,-1.292445E-3,8.7856E1,1.7432E1,2.7326E1,3.223E1,3.264E1,3.3024E1,3.4482E1,3.8026E1,3.8322E1,-1.8627726E-3,-5.72253E-4,-7.1716984E-4,4.1462E1,-7.3333463E-4,5.63193E-4,-6.877067E-4,-3.8390944E-4,5.2152E1,6.42E1,6.5092E1,6.7964E1,8.152E1,-1.1145425E-3,1.519193E-3,8.461E1,3.0490212E-4,9.0184E1,9.75E0,1.8122E1,2.6072E1,2.7594E1,3.1968E1,5.192288E-4,-1.1041593E-3,-1.8630052E-3,1.9178052E-3,7.8803283E-4,3.3338E1,3.5628E1,-5.1029987E-4,-9.845347E-4,6.8482436E-4,3.849E1,-0E0,4.1718E1,9.549667E-4,5.7274E1,1.2301892E-3,1.9764819E-3,-7.1555254E-4,-1.5057144E-3,1.4918086E-3,7.1118E1,8.116E1,5.4410833E-4,-4.0889392E-4,8.6344E1,-9.80584E-4,-5.152275E-4,9.378E0,1.0832E1,1.7594E1,2.0552E1,2.4378E1,2.6576E1,-1.5789007E-3,2.9194E1,3.185E1,-5.4947496E-4,-1.1673715E-3,3.3908E1,7.3777756E-4,3.6224E1,-1.041379E-3,3.884E1,-6.871264E-4,-1.069188E-4,5.5728E1,4.4921468E-4,-8.171362E-4,7.4554E1,7.9682E1,-8.732963E-4,8.578E1,6.000063E-4,7.158E0,9.452E0,1.0186E1,1.1178E1,1.7506E1,1.7816E1,1.9484E1,2.1068E1,2.338E1,2.5262E1,1.6348019E-3,2.6908E1,2.8622E1,2.9854E1,-5.556721E-4,-1.395883E-3,3.355E1,-1.0007003E-3,3.5844E1,3.6368E1,3.867E1,3.9146E1,3.6858825E-4,-1.0980992E-4,7.3948E1,7.5814E1,1.3747107E-4,8.0802E1,3.8578617E-4,-9.2833805E-5,2.9481525E-4,-2.4485376E-4,-1.3759466E-3,-8.542647E-4,1.514861E-4,1.1188351E-3,-9.976851E-4,1.6929896E-4,-8.636945E-4,-2.6937743E-4,-1.5231903E-3,-7.324512E-4,-3.4000663E-4,2.171771E-4,-1.0712215E-3,-1.8956958E-4,1.3052176E-4,8.098952E-4,-6.491242E-4,3.8308877E-4,3.7205758E-4,8.57965E-4,5.9701662E-5,-6.529415E-4,1.1598619E-3,3.0916366E-5,-1.12051355E-4,-0E0,-2.5876047E-4,-7.443392E-4,8.001673E-4,-7.099234E-5,-2.363772E-4,-0E0,-8.58885E-4,-4.2220726E-4,9.655909E-4,2.191387E-3,-8.098113E-4,7.15177E-4,-1.1729653E-4,-0E0],